
#include "mlp_model.h"
#include <eml_net.h>
static const float mlp_perf__32_32__1e_05_layer_0_biases[32] = { -0.056104f, -0.077486f, -0.081478f, 0.078756f, -0.015881f, -0.065573f, -0.002713f, 0.028302f, 0.072239f, -0.042626f, -0.082569f, 0.090163f, 0.046730f, -0.105588f, 0.085866f, -0.099719f, 0.049660f, 0.024121f, -0.017419f, -0.048973f, -0.087346f, 0.032082f, -0.068866f, 0.089475f, -0.042400f, 0.059808f, -0.025868f, -0.054855f, 0.076428f, 0.051750f, 0.015291f, 0.020223f };
static const float mlp_perf__32_32__1e_05_layer_0_weights[19200] = { 0.009608f, 0.033139f, 0.031436f, 0.018337f, -0.004274f, 0.015602f, -0.001902f, 0.089969f, 0.102373f, -0.013540f, 0.057626f, 0.005504f, -0.000805f, 0.095716f, -0.100792f, -0.097777f, -0.106161f, 0.052608f, 0.057563f, 0.070983f, 0.085353f, 0.076057f, 0.009595f, 0.045017f, -0.074149f, 0.044016f, -0.079899f, 0.104976f, -0.007506f, -0.026949f, -0.035841f, 0.066346f, -0.011704f, 0.023776f, -0.091698f, 0.029882f, 0.034980f, 0.038080f, 0.074877f, 0.052109f, -0.024379f, -0.008467f, 0.036557f, -0.096374f, 0.018540f, 0.028414f, -0.047812f, -0.064942f, -0.049078f, -0.010127f, 0.025227f, -0.026344f, 0.110330f, -0.089822f, -0.039437f, -0.076440f, 0.029886f, -0.035591f, -0.000609f, -0.052375f, -0.082927f, -0.062641f, 0.039208f, -0.081777f, -0.056908f, -0.009896f, 0.050999f, -0.082453f, 0.058076f, -0.068492f, 0.084265f, -0.018028f, 0.085928f, 0.003709f, 0.055763f, -0.071817f, -0.029428f, -0.084724f, -0.025289f, -0.068568f, -0.020024f, -0.007753f, -0.089956f, 0.028350f, 0.020045f, -0.063068f, 0.000172f, -0.065375f, 0.012918f, 0.068432f, -0.023870f, 0.020927f, -0.058817f, 0.047235f, -0.041183f, -0.075463f, 0.015714f, -0.080301f, 0.058943f, -0.083836f, 0.024813f, -0.032779f, 0.030910f, 0.107903f, -0.050923f, 0.001773f, 0.033133f, 0.008524f, -0.045752f, 0.085783f, -0.001999f, 0.079499f, 0.029478f, -0.024841f, 0.074402f, -0.034273f, 0.086292f, 0.007303f, 0.091354f, 0.027039f, 0.042886f, 0.011263f, 0.091164f, 0.036833f, -0.032364f, 0.028600f, -0.093985f, -0.047530f, 0.023592f, -0.057672f, 0.015773f, -0.025337f, -0.079388f, -0.025913f, 0.002689f, 0.006087f, 0.003670f, 0.046593f, 0.024335f, -0.028384f, 0.089807f, -0.028891f, -0.021624f, 0.091852f, 0.061521f, 0.053189f, -0.069443f, 0.090019f, 0.046357f, 0.112399f, -0.085674f, 0.060704f, -0.065594f, 0.028206f, -0.062401f, 0.049714f, 0.047363f, 0.020759f, -0.014108f, -0.092235f, 0.031936f, -0.026501f, 0.053362f, 0.054804f, 0.110041f, 0.082956f, -0.098664f, -0.039787f, 0.040457f, -0.048412f, -0.013672f, -0.101447f, -0.042893f, -0.095396f, 0.044354f, -0.063671f, -0.041853f, 0.092878f, 0.021822f, -0.091195f, -0.071393f, 0.018611f, -0.002043f, -0.039368f, 0.082481f, 0.032552f, 0.022202f, 0.000287f, 0.028093f, -0.021320f, -0.022239f, -0.062423f, -0.061466f, 0.081332f, 0.058215f, 0.007803f, -0.041100f, -0.060862f, -0.075788f, 0.000800f, -0.024718f, 0.044341f, -0.022169f, -0.059566f, -0.106378f, -0.071783f, 0.017530f, -0.026161f, -0.005372f, 0.064841f, 0.098785f, -0.057162f, 0.023758f, -0.028496f, -0.076253f, 0.043236f, -0.034816f, -0.005878f, 0.007057f, 0.082834f, 0.013772f, 0.062839f, -0.035134f, 0.070636f, -0.064096f, 0.098772f, 0.037822f, -0.048437f, 0.099798f, 0.060244f, -0.060318f, -0.038810f, 0.005991f, -0.088941f, -0.057908f, -0.025440f, -0.037554f, -0.011688f, -0.034850f, 0.025743f, 0.057815f, -0.057736f, 0.015029f, -0.086119f, 0.057463f, -0.032298f, 0.030070f, -0.072732f, -0.068762f, 0.010175f, -0.022404f, 0.083625f, 0.035141f, 0.061572f, 0.087248f, -0.092440f, 0.013251f, 0.032136f, 0.078180f, -0.045272f, -0.061913f, -0.067254f, -0.103011f, 0.071971f, 0.025154f, 0.039141f, -0.032585f, 0.034663f, -0.072423f, -0.013857f, 0.107776f, 0.084669f, -0.015957f, 0.099174f, -0.057313f, 0.080202f, 0.093653f, 0.040798f, 0.021051f, 0.086320f, -0.042404f, 0.052835f, 0.033944f, -0.107304f, -0.016774f, -0.066120f, 0.093527f, -0.017704f, -0.001774f, 0.040753f, -0.030641f, -0.057464f, 0.049405f, -0.049065f, -0.012640f, -0.035935f, -0.080597f, 0.056834f, 0.108406f, 0.087315f, 0.088248f, 0.051089f, -0.023845f, -0.069672f, -0.026596f, -0.038228f, -0.058053f, -0.101166f, 0.054285f, -0.103950f, 0.069484f, -0.078610f, -0.083089f, -0.069108f, 0.034091f, -0.038058f, -0.032966f, 0.018450f, 0.069081f, 0.036011f, -0.052713f, -0.088545f, -0.091500f, -0.050403f, -0.053898f, 0.004761f, 0.024649f, 0.027810f, -0.052702f, -0.006451f, -0.066288f, 0.040812f, -0.074178f, 0.037129f, 0.044691f, 0.069203f, -0.048157f, -0.011107f, 0.025502f, -0.035734f, -0.021867f, -0.042833f, -0.024764f, -0.099329f, 0.058606f, -0.075911f, 0.014645f, -0.055492f, 0.000803f, 0.096683f, 0.033663f, -0.097860f, -0.018458f, -0.015480f, 0.011205f, 0.019002f, -0.026272f, -0.058888f, -0.026412f, 0.076177f, -0.067132f, 0.094689f, -0.008977f, -0.023191f, 0.091089f, -0.009782f, 0.030985f, -0.024605f, 0.068918f, 0.047642f, 0.020625f, -0.030748f, 0.045535f, 0.026487f, -0.068107f, -0.060591f, 0.054230f, 0.098666f, 0.006217f, 0.000511f, 0.053021f, 0.005824f, 0.087266f, 0.008470f, 0.061898f, 0.079308f, 0.073090f, -0.056626f, 0.037731f, -0.032914f, -0.074813f, -0.001256f, -0.035141f, 0.070732f, -0.088266f, 0.094669f, -0.041714f, -0.015596f, -0.110223f, -0.078299f, -0.031559f, 0.070968f, -0.074811f, 0.084080f, 0.063912f, 0.008355f, -0.016584f, -0.055487f, 0.022583f, -0.074163f, -0.104361f, 0.004421f, -0.095099f, -0.057694f, -0.046394f, -0.035841f, -0.074498f, -0.084406f, -0.074089f, 0.030267f, 0.104553f, 0.110761f, -0.030619f, -0.048451f, 0.029063f, 0.000872f, 0.095613f, -0.095494f, 0.043162f, -0.045676f, -0.041658f, 0.041422f, -0.062557f, 0.049361f, 0.015114f, -0.029267f, 0.025863f, -0.053439f, 0.057602f, -0.027898f, -0.026426f, 0.076562f, 0.088304f, -0.090067f, -0.068770f, -0.016537f, 0.069673f, 0.083353f, 0.095433f, 0.094326f, -0.051707f, 0.090055f, -0.062010f, -0.065727f, 0.078997f, -0.063513f, 0.028241f, -0.101979f, 0.055121f, 0.091692f, -0.032068f, -0.034847f, -0.009424f, 0.064532f, -0.035386f, -0.054484f, -0.015298f, -0.039238f, 0.074068f, -0.068646f, -0.004042f, 0.099345f, 0.023898f, 0.056481f, 0.096571f, 0.035606f, 0.051817f, 0.091420f, 0.096577f, -0.022624f, -0.085047f, -0.026466f, -0.070196f, -0.002262f, -0.087825f, 0.030690f, -0.037447f, 0.094757f, 0.088661f, -0.005160f, -0.027036f, 0.021129f, 0.088798f, -0.020303f, 0.019201f, -0.032893f, -0.015937f, -0.006023f, -0.035242f, -0.013032f, -0.029720f, -0.033751f, 0.021220f, 0.039975f, -0.030578f, 0.093337f, 0.069032f, -0.073020f, -0.065052f, -0.003901f, -0.079175f, -0.036703f, 0.038534f, 0.018557f, 0.025218f, 0.029037f, -0.063945f, -0.017731f, 0.023163f, 0.065942f, -0.001512f, -0.025278f, -0.093829f, 0.025158f, -0.084548f, -0.023830f, -0.004117f, 0.096886f, -0.085206f, -0.004880f, -0.084197f, -0.021921f, 0.025067f, -0.026181f, -0.072848f, -0.082110f, 0.015038f, 0.045403f, 0.044553f, 0.070175f, -0.111873f, 0.035641f, 0.026062f, 0.011593f, 0.086721f, -0.111532f, 0.038983f, 0.045036f, 0.018147f, -0.019069f, 0.049875f, -0.091578f, -0.018700f, 0.020165f, 0.020511f, -0.094686f, -0.035651f, -0.019337f, 0.011564f, 0.082012f, 0.016336f, -0.059765f, 0.075121f, 0.077428f, -0.002477f, 0.089606f, -0.009688f, 0.080776f, 0.059457f, 0.098988f, 0.095381f, -0.107595f, -0.080077f, -0.008405f, 0.088884f, -0.045635f, -0.066929f, 0.080475f, 0.001137f, 0.089362f, -0.053608f, 0.018178f, -0.001213f, -0.068954f, 0.050090f, -0.049883f, -0.085599f, -0.078887f, -0.099091f, 0.091578f, 0.039650f, 0.060736f, 0.021500f, -0.007230f, -0.034471f, 0.093790f, -0.034807f, 0.011007f, -0.006524f, 0.094099f, -0.063140f, -0.016812f, 0.025260f, -0.066851f, 0.010398f, -0.013656f, -0.035264f, -0.038970f, 0.000037f, -0.014763f, -0.007068f, -0.023824f, 0.104014f, -0.056330f, -0.091398f, -0.013372f, 0.019740f, 0.031672f, -0.019118f, 0.086701f, -0.039695f, 0.038717f, 0.036858f, 0.070695f, 0.079707f, 0.093041f, 0.063401f, 0.024087f, -0.016949f, -0.080898f, -0.067856f, -0.061185f, -0.012103f, 0.016830f, 0.058676f, 0.088965f, -0.091401f, -0.063619f, 0.024921f, 0.036556f, 0.072863f, 0.099340f, 0.082073f, -0.026719f, -0.036974f, -0.057066f, 0.027113f, 0.019080f, 0.061202f, -0.093730f, 0.008828f, 0.028391f, -0.038158f, -0.075698f, 0.085495f, -0.068999f, 0.010125f, -0.065103f, -0.014809f, 0.094399f, -0.006604f, 0.052256f, -0.078970f, -0.031611f, -0.020980f, -0.034623f, 0.044390f, -0.044308f, 0.054329f, 0.026863f, -0.017892f, -0.026265f, 0.020560f, -0.069559f, 0.063238f, 0.044026f, 0.028148f, 0.015872f, -0.089889f, -0.001107f, -0.020914f, -0.049686f, -0.074706f, 0.058755f, -0.064443f, 0.018897f, 0.049313f, 0.035966f, 0.084003f, -0.065364f, 0.085328f, -0.106020f, 0.008168f, -0.028364f, 0.019993f, -0.033301f, -0.059307f, -0.083306f, 0.000029f, 0.084875f, -0.039223f, -0.048071f, -0.084964f, -0.085778f, -0.062847f, -0.094151f, -0.026871f, -0.096822f, -0.087917f, 0.081938f, -0.076916f, 0.005619f, 0.044452f, 0.008351f, -0.065939f, -0.074810f, -0.003816f, 0.009266f, -0.039599f, 0.068313f, 0.039959f, 0.096427f, -0.083301f, 0.085845f, -0.023477f, 0.090883f, 0.021785f, 0.095375f, 0.048237f, -0.018164f, 0.011575f, -0.039785f, -0.041070f, -0.038751f, 0.006480f, 0.033078f, -0.047020f, -0.012627f, -0.075867f, -0.082291f, -0.075134f, 0.104918f, -0.104272f, -0.075767f, 0.013869f, -0.065053f, 0.057349f, 0.027764f, 0.108517f, -0.000350f, -0.050976f, 0.021802f, 0.080169f, 0.016534f, -0.064001f, 0.080027f, -0.026697f, -0.086157f, -0.067116f, -0.040739f, 0.064942f, -0.001907f, 0.002233f, -0.049093f, 0.057369f, 0.100240f, 0.098067f, -0.031062f, 0.090051f, 0.065503f, 0.045751f, -0.039695f, -0.042830f, -0.078331f, 0.092807f, -0.026531f, 0.002592f, -0.004391f, 0.059368f, 0.074997f, -0.083791f, -0.002369f, 0.062440f, 0.045231f, -0.089451f, -0.079940f, -0.034182f, -0.086340f, -0.022541f, -0.060294f, 0.030574f, -0.046128f, 0.019039f, -0.058138f, 0.082880f, 0.102535f, -0.031175f, -0.059743f, -0.042577f, 0.008565f, -0.092563f, 0.038587f, -0.015772f, -0.014989f, 0.072714f, 0.055729f, 0.075944f, -0.012074f, 0.079497f, 0.050942f, -0.025478f, 0.013412f, -0.051181f, 0.068424f, -0.064622f, -0.046591f, -0.074921f, -0.001811f, 0.059847f, -0.009386f, 0.012586f, -0.109853f, 0.002878f, -0.095431f, -0.055520f, 0.096854f, -0.050229f, 0.070815f, 0.042098f, -0.053580f, 0.027018f, -0.086136f, 0.050468f, 0.037800f, 0.048597f, -0.012246f, 0.066569f, -0.075745f, -0.049405f, 0.030635f, -0.027730f, -0.077681f, -0.068478f, 0.069081f, 0.006840f, 0.063296f, 0.061368f, -0.000168f, -0.008694f, 0.013133f, 0.068573f, 0.048775f, -0.087942f, 0.020935f, 0.077489f, 0.053533f, -0.065230f, -0.018314f, -0.059102f, -0.042171f, 0.097516f, 0.081816f, -0.039360f, -0.043929f, 0.017489f, 0.104819f, -0.065408f, -0.033083f, 0.057174f, 0.004531f, 0.064429f, -0.047018f, 0.003562f, -0.049001f, -0.018886f, 0.007164f, -0.001313f, -0.029110f, 0.090932f, 0.048328f, 0.042443f, -0.030067f, 0.028799f, 0.040092f, 0.048320f, -0.040553f, 0.064301f, 0.040925f, -0.069885f, 0.081175f, -0.017042f, 0.016327f, -0.014227f, 0.018250f, 0.019419f, 0.001848f, 0.062775f, 0.013475f, -0.002285f, -0.027073f, 0.061775f, -0.018699f, -0.063087f, -0.087852f, 0.066764f, 0.097354f, -0.068811f, -0.048925f, -0.058408f, -0.067998f, 0.067685f, -0.076158f, 0.082498f, -0.065990f, 0.079805f, 0.021398f, -0.033066f, -0.013922f, 0.036025f, -0.028139f, 0.027994f, 0.012448f, 0.008552f, 0.073552f, -0.003128f, 0.072098f, 0.051029f, -0.084785f, 0.048223f, -0.072635f, 0.076540f, -0.105035f, -0.020057f, -0.065107f, -0.012606f, 0.049202f, -0.047856f, -0.051359f, -0.050065f, 0.046182f, -0.052423f, -0.055466f, -0.095294f, 0.053796f, -0.019578f, -0.024099f, 0.024141f, -0.024646f, 0.043392f, 0.071889f, -0.073031f, 0.086735f, -0.070357f, -0.036515f, -0.049595f, -0.047261f, -0.020920f, 0.019189f, 0.072079f, 0.068481f, -0.055010f, 0.037189f, -0.064311f, 0.002322f, -0.022831f, -0.049009f, 0.007069f, 0.058377f, -0.072274f, 0.069323f, 0.053009f, -0.054481f, 0.072194f, 0.012801f, 0.094180f, -0.075702f, -0.005147f, -0.053903f, -0.033442f, 0.013892f, 0.074499f, 0.075397f, 0.061124f, 0.015217f, 0.082505f, 0.014261f, 0.062897f, 0.083346f, -0.065427f, 0.042763f, -0.089768f, -0.022874f, -0.055781f, 0.013033f, 0.049121f, -0.068658f, 0.015362f, 0.100355f, -0.065303f, 0.050629f, 0.020321f, -0.099505f, -0.001012f, 0.030716f, -0.098278f, 0.069281f, 0.015409f, -0.082394f, -0.066920f, 0.105453f, 0.028345f, -0.091145f, -0.026497f, -0.021105f, -0.075885f, -0.027111f, -0.000535f, -0.037302f, 0.022002f, 0.052209f, -0.068501f, 0.036134f, 0.032666f, 0.076226f, 0.061209f, 0.072175f, -0.014174f, -0.070108f, 0.081569f, -0.059596f, -0.014979f, -0.094954f, 0.074524f, 0.078447f, 0.051078f, -0.026677f, -0.036365f, -0.056926f, -0.055918f, 0.022518f, -0.053700f, -0.025133f, 0.017150f, 0.048013f, -0.083562f, -0.029605f, 0.025808f, 0.079515f, -0.007169f, 0.076263f, -0.034772f, -0.110049f, 0.008869f, -0.048633f, 0.067101f, -0.064384f, -0.039148f, 0.071675f, 0.047104f, 0.025698f, 0.024886f, -0.013187f, -0.108983f, -0.084186f, -0.001192f, -0.096529f, -0.070638f, 0.107775f, 0.081911f, -0.068743f, -0.087182f, 0.077995f, -0.035208f, -0.051361f, 0.050845f, -0.090535f, -0.059520f, 0.081864f, 0.036106f, 0.000840f, -0.020801f, 0.062332f, -0.077752f, 0.110186f, 0.075554f, 0.026631f, -0.094252f, 0.050400f, 0.071718f, 0.005815f, -0.013044f, -0.071510f, 0.056623f, 0.079885f, -0.074730f, 0.049635f, -0.093685f, 0.100396f, 0.030894f, -0.006022f, -0.042972f, 0.094196f, -0.055127f, 0.059361f, 0.082212f, 0.066543f, 0.013190f, -0.076827f, -0.016808f, 0.003159f, -0.070273f, -0.002540f, -0.030045f, -0.055617f, -0.005330f, -0.039757f, -0.008017f, -0.082287f, 0.085361f, 0.077440f, 0.002738f, 0.050907f, 0.088812f, -0.092001f, 0.039201f, 0.109401f, 0.087134f, 0.006569f, -0.081179f, 0.032921f, -0.114088f, -0.073629f, 0.106269f, -0.035575f, 0.018697f, -0.030293f, 0.090554f, 0.057427f, -0.051120f, 0.064522f, -0.077255f, -0.017948f, -0.072490f, 0.039975f, -0.079893f, -0.017386f, -0.030453f, -0.016037f, -0.046641f, 0.056797f, -0.088309f, 0.018421f, -0.052656f, -0.030308f, 0.069765f, 0.099364f, -0.024538f, 0.050449f, -0.066676f, 0.039664f, 0.060528f, -0.072299f, -0.005789f, 0.085472f, -0.090534f, -0.082631f, 0.015122f, -0.029232f, 0.046262f, 0.069465f, -0.034128f, -0.025743f, -0.010282f, 0.033004f, 0.112042f, 0.042113f, -0.021333f, -0.031683f, 0.076616f, -0.052739f, 0.033632f, 0.072329f, 0.036837f, -0.003488f, -0.061876f, -0.013770f, 0.046324f, 0.039778f, 0.095712f, 0.086351f, 0.049398f, 0.095809f, -0.041134f, -0.031521f, -0.017971f, 0.002198f, 0.023395f, -0.046524f, -0.081772f, -0.010913f, -0.050594f, 0.103127f, 0.088341f, 0.055571f, 0.044625f, -0.043138f, 0.027078f, 0.051844f, -0.076638f, 0.071377f, -0.085310f, 0.066681f, 0.042880f, -0.075155f, 0.029244f, -0.010669f, -0.056767f, -0.070945f, 0.040774f, 0.004012f, 0.078548f, 0.107124f, 0.086188f, -0.084454f, 0.073331f, -0.056282f, 0.000807f, 0.048468f, -0.046942f, 0.001765f, -0.043463f, -0.059752f, -0.058554f, -0.016600f, -0.103806f, -0.010151f, 0.044160f, -0.031842f, -0.083999f, -0.078996f, -0.045733f, -0.079618f, 0.101243f, -0.083639f, 0.071359f, 0.014287f, 0.018159f, -0.009599f, 0.089462f, -0.011260f, 0.061849f, 0.025212f, -0.035041f, 0.087316f, 0.007231f, -0.069167f, -0.019956f, 0.039537f, 0.054425f, 0.097444f, -0.034760f, 0.050082f, 0.002218f, 0.003014f, 0.099047f, 0.102238f, 0.083353f, -0.041432f, 0.060439f, 0.015942f, -0.007834f, -0.091743f, 0.051304f, 0.006841f, 0.046208f, 0.067274f, 0.067098f, -0.036823f, 0.052672f, 0.023248f, -0.014141f, 0.045453f, -0.078805f, -0.071246f, -0.030184f, 0.085031f, -0.062324f, -0.032858f, -0.080291f, -0.035662f, -0.023558f, 0.080772f, 0.057397f, -0.005999f, -0.096385f, 0.050509f, 0.018678f, -0.059702f, 0.106580f, -0.073797f, 0.058345f, -0.027768f, -0.022824f, 0.071549f, 0.032783f, 0.096058f, 0.023437f, -0.065283f, 0.064515f, 0.059156f, 0.046394f, -0.071811f, -0.028815f, -0.082596f, 0.062312f, 0.022859f, 0.089283f, 0.102503f, 0.045562f, 0.082701f, 0.013548f, -0.073598f, -0.111600f, -0.045531f, 0.080014f, 0.068085f, 0.088343f, -0.076700f, -0.083410f, 0.093467f, -0.055031f, 0.019187f, 0.093078f, -0.023395f, 0.014047f, -0.004552f, 0.051777f, 0.006479f, -0.037973f, -0.061961f, -0.064680f, 0.023374f, 0.044869f, 0.079649f, 0.038153f, 0.069473f, -0.053403f, -0.013721f, -0.006231f, 0.023120f, -0.029250f, -0.024767f, -0.016571f, 0.055190f, 0.024826f, -0.073628f, -0.095369f, -0.014102f, 0.049818f, 0.020131f, 0.028565f, 0.039038f, -0.036448f, 0.005452f, 0.000921f, 0.062585f, 0.107094f, -0.039958f, 0.057389f, 0.041315f, 0.005531f, 0.071862f, 0.077494f, -0.101323f, -0.064418f, 0.061316f, -0.084359f, 0.015586f, -0.046598f, -0.032683f, 0.051366f, -0.076747f, 0.060897f, 0.004440f, 0.003193f, 0.000005f, 0.035945f, -0.039386f, -0.087353f, -0.040711f, -0.052618f, 0.019260f, -0.048814f, 0.106026f, 0.103895f, 0.008673f, 0.037607f, 0.081707f, 0.093110f, 0.042218f, -0.035470f, -0.013422f, -0.055003f, 0.004867f, 0.078505f, 0.092301f, -0.070965f, -0.103557f, 0.085709f, -0.001741f, -0.071066f, 0.024425f, 0.012294f, -0.060033f, -0.057018f, -0.094823f, -0.068498f, -0.075253f, -0.049509f, 0.031046f, -0.077799f, -0.088549f, -0.057988f, -0.018890f, -0.023127f, -0.036103f, 0.042558f, 0.102164f, 0.020304f, 0.080122f, -0.022390f, -0.083976f, -0.020424f, -0.054729f, 0.008997f, 0.014661f, 0.004238f, 0.080123f, 0.079948f, 0.027743f, -0.004596f, -0.056147f, -0.014569f, 0.054352f, -0.056195f, -0.083568f, 0.068562f, 0.038371f, 0.018803f, 0.041699f, 0.081776f, 0.012424f, 0.086782f, 0.081800f, -0.034794f, 0.008672f, 0.016585f, 0.015053f, 0.096668f, -0.051363f, 0.078615f, 0.067243f, -0.005871f, 0.062663f, 0.050667f, 0.035226f, -0.045927f, -0.040547f, 0.045573f, 0.066914f, -0.100819f, 0.041436f, -0.020072f, 0.091836f, -0.020934f, 0.002971f, 0.016216f, -0.084342f, 0.050566f, 0.065073f, -0.077060f, -0.052383f, -0.076447f, 0.091503f, 0.019868f, 0.109186f, 0.010973f, 0.042221f, -0.037000f, -0.030119f, -0.013365f, 0.030332f, -0.041108f, 0.086207f, 0.086178f, -0.077160f, -0.061384f, -0.064117f, -0.093737f, -0.037721f, -0.018508f, 0.070813f, -0.050168f, 0.013027f, 0.074690f, 0.014684f, 0.058591f, -0.006379f, 0.110780f, 0.027860f, -0.096673f, -0.072435f, -0.027197f, 0.035525f, 0.036180f, -0.031210f, 0.057276f, 0.052493f, -0.028100f, 0.093318f, 0.035843f, 0.087086f, -0.005172f, 0.054941f, 0.051559f, 0.071171f, -0.086390f, 0.026347f, -0.012815f, 0.082204f, -0.063641f, 0.076516f, 0.055859f, -0.066116f, 0.004464f, 0.034232f, 0.049279f, 0.090607f, 0.069464f, -0.025854f, 0.009914f, 0.026166f, -0.059900f, -0.046107f, 0.007737f, -0.044003f, 0.080442f, 0.025975f, -0.042552f, 0.078712f, 0.057521f, 0.080501f, 0.055673f, -0.029656f, -0.068112f, 0.062602f, -0.093283f, -0.013134f, 0.100141f, 0.092545f, 0.027686f, 0.044103f, -0.099292f, 0.021113f, 0.000199f, -0.042512f, -0.079966f, -0.041576f, -0.031017f, 0.000184f, 0.027887f, 0.055149f, -0.023800f, -0.018590f, -0.104822f, -0.076585f, -0.044118f, 0.035355f, 0.034898f, 0.043969f, 0.042498f, 0.063823f, 0.055128f, 0.101091f, 0.064293f, 0.033350f, 0.030782f, -0.105598f, 0.111726f, -0.084818f, 0.064570f, 0.053423f, -0.024724f, -0.046204f, -0.075853f, 0.058511f, -0.026302f, 0.053268f, 0.083209f, -0.079752f, 0.090108f, -0.027916f, -0.050727f, 0.076950f, 0.079722f, -0.044707f, 0.019992f, -0.084056f, 0.017734f, 0.063905f, 0.047784f, -0.023509f, -0.013487f, -0.031597f, 0.017413f, 0.090841f, 0.097388f, -0.074915f, -0.066428f, -0.069988f, -0.044874f, -0.029456f, 0.000666f, 0.011345f, 0.042304f, 0.061624f, 0.105079f, 0.015599f, 0.079360f, 0.046388f, -0.032109f, 0.061968f, -0.091878f, -0.081366f, -0.039092f, 0.007117f, 0.015179f, -0.090828f, 0.024280f, 0.051346f, -0.064332f, -0.031744f, 0.019849f, 0.005698f, 0.071301f, 0.093519f, 0.067626f, -0.094804f, 0.071431f, -0.078200f, -0.042789f, -0.079704f, -0.074662f, -0.005496f, 0.032095f, -0.002748f, 0.087607f, -0.058994f, 0.040130f, 0.090295f, 0.025380f, -0.010503f, 0.011640f, -0.000638f, 0.001863f, -0.000952f, -0.005990f, 0.047087f, -0.065832f, -0.079679f, 0.078036f, 0.054377f, -0.032706f, -0.038411f, 0.098026f, 0.069030f, 0.008223f, -0.036542f, -0.082077f, -0.030091f, 0.021300f, 0.053800f, 0.079606f, -0.095328f, -0.063566f, -0.028144f, -0.066460f, 0.073428f, 0.050605f, 0.015327f, 0.087770f, -0.053054f, 0.072462f, -0.070411f, -0.062577f, 0.051765f, -0.085265f, -0.005030f, -0.014475f, 0.028169f, 0.095465f, 0.062013f, 0.059852f, -0.104464f, -0.045188f, 0.014447f, -0.032896f, -0.065394f, -0.021672f, 0.081803f, -0.029576f, -0.032571f, -0.089114f, 0.079968f, -0.082396f, -0.050066f, -0.048913f, 0.064226f, -0.075048f, 0.072346f, 0.062249f, 0.081998f, -0.061438f, -0.072709f, 0.031097f, -0.042657f, -0.034786f, -0.073345f, -0.060493f, 0.006849f, -0.065066f, -0.023620f, -0.004120f, -0.105773f, -0.011165f, -0.065675f, 0.010124f, 0.059798f, 0.071280f, -0.072668f, 0.006813f, 0.075737f, -0.052821f, 0.034439f, 0.064084f, 0.046734f, -0.073284f, -0.099143f, -0.069597f, -0.028546f, 0.041186f, -0.020063f, 0.040031f, -0.024175f, -0.077444f, -0.018225f, 0.065976f, 0.077811f, -0.052945f, 0.067351f, -0.047581f, 0.088595f, -0.053198f, 0.044554f, -0.069453f, 0.107023f, 0.028746f, 0.079280f, 0.016570f, -0.017331f, 0.035521f, -0.002426f, -0.016350f, 0.044615f, -0.050498f, -0.057254f, -0.026808f, -0.018934f, -0.068940f, 0.052166f, 0.067320f, -0.004624f, 0.111180f, -0.091940f, 0.051443f, -0.032557f, -0.024271f, -0.042342f, 0.039305f, -0.058045f, 0.067316f, 0.020788f, -0.077153f, 0.049834f, 0.011969f, 0.069682f, 0.032532f, 0.026191f, 0.054631f, -0.048054f, -0.002203f, -0.035894f, 0.104468f, -0.062157f, -0.085809f, -0.044608f, -0.004408f, -0.075737f, 0.024576f, 0.085375f, 0.040317f, 0.029692f, 0.104969f, 0.093042f, 0.064387f, 0.005199f, -0.005687f, -0.107651f, 0.029755f, 0.079014f, 0.074367f, -0.043427f, -0.062049f, 0.044415f, 0.044558f, 0.107416f, 0.077624f, 0.025076f, -0.089457f, -0.018774f, -0.042930f, -0.008245f, -0.039189f, 0.055435f, 0.082148f, -0.021365f, 0.032526f, -0.008802f, 0.088758f, -0.073560f, 0.050877f, 0.096285f, -0.060632f, -0.064985f, 0.022020f, 0.043676f, -0.006253f, 0.026894f, -0.058054f, -0.017514f, -0.086332f, -0.017209f, -0.027993f, -0.015056f, 0.076133f, -0.049140f, -0.028080f, 0.038180f, 0.100119f, -0.061724f, 0.094723f, -0.096397f, 0.006096f, -0.006215f, -0.046241f, -0.045228f, 0.006724f, 0.080329f, 0.073861f, 0.019895f, 0.079558f, 0.004401f, -0.041613f, -0.073299f, -0.005667f, -0.001591f, -0.102115f, -0.067797f, 0.015705f, -0.039143f, 0.064487f, -0.021180f, -0.084192f, -0.064351f, 0.082099f, -0.070794f, -0.067800f, 0.083708f, -0.056970f, 0.015450f, 0.062983f, 0.004641f, 0.106625f, 0.048878f, -0.083872f, -0.001983f, 0.035054f, 0.056318f, -0.108561f, 0.032925f, 0.078770f, 0.042367f, 0.014229f, -0.014521f, 0.017851f, 0.052660f, 0.068091f, 0.029796f, 0.074494f, 0.027387f, -0.101536f, 0.014173f, -0.038824f, -0.043844f, -0.014447f, -0.053752f, 0.001376f, 0.052044f, -0.035926f, -0.080834f, -0.082467f, 0.023123f, -0.050172f, -0.084388f, 0.093722f, -0.005825f, -0.068780f, 0.080077f, 0.105469f, -0.012278f, -0.081501f, -0.065626f, -0.035867f, 0.085516f, -0.070256f, 0.046564f, -0.106636f, -0.021118f, 0.029358f, -0.088772f, 0.012787f, 0.102882f, -0.047490f, 0.046961f, 0.021762f, -0.059293f, -0.106298f, -0.077363f, -0.002718f, 0.074825f, 0.032452f, 0.052811f, -0.004625f, 0.029418f, -0.059470f, 0.086114f, 0.062251f, 0.111687f, -0.048827f, -0.040734f, -0.068956f, 0.076579f, 0.067961f, -0.072434f, -0.000729f, -0.023013f, -0.055774f, -0.060272f, 0.076721f, -0.022490f, 0.100468f, -0.097768f, 0.006545f, -0.085477f, -0.078704f, 0.002324f, -0.076820f, 0.056323f, 0.038725f, -0.048962f, 0.069318f, 0.054018f, -0.039575f, 0.030244f, 0.054177f, -0.041275f, -0.037326f, -0.036552f, 0.006691f, 0.092536f, -0.074993f, 0.071477f, -0.103060f, 0.039173f, -0.002235f, 0.047097f, 0.050888f, -0.014298f, 0.020689f, 0.016233f, 0.072415f, 0.008071f, 0.012020f, -0.042819f, 0.037438f, -0.032431f, 0.017894f, -0.081029f, -0.070085f, -0.023750f, -0.005966f, -0.061555f, -0.059063f, -0.103789f, -0.086599f, -0.055246f, -0.010379f, 0.060987f, -0.000835f, 0.092427f, -0.101995f, -0.078575f, -0.034610f, 0.002513f, 0.068049f, -0.044065f, -0.033210f, -0.071267f, 0.075977f, -0.017843f, 0.022517f, 0.081573f, -0.084545f, -0.066233f, 0.052579f, 0.058405f, 0.036803f, -0.002902f, 0.086479f, -0.012338f, 0.017661f, -0.098394f, -0.025251f, 0.060233f, -0.036535f, 0.079382f, 0.027941f, -0.028571f, 0.043642f, -0.065273f, 0.105421f, -0.077447f, 0.097483f, -0.062902f, 0.060211f, -0.093494f, -0.037203f, 0.032541f, 0.022331f, -0.064772f, -0.035854f, -0.009446f, 0.021091f, 0.016089f, 0.054368f, -0.015301f, -0.009442f, -0.076259f, 0.046472f, 0.041429f, -0.019700f, 0.018139f, 0.031144f, -0.052388f, -0.099814f, -0.018468f, 0.017571f, -0.000118f, 0.038913f, 0.074956f, -0.011307f, -0.084732f, 0.069399f, -0.001289f, 0.064010f, 0.046739f, 0.082700f, -0.052991f, 0.033427f, -0.036841f, -0.036183f, -0.054393f, -0.015525f, 0.080526f, -0.027968f, -0.056962f, 0.025005f, -0.034316f, -0.018630f, 0.071310f, -0.053294f, -0.026982f, 0.004623f, 0.022518f, 0.095634f, 0.030433f, 0.060468f, 0.073425f, -0.026754f, -0.012210f, -0.079694f, -0.070565f, -0.047521f, -0.056766f, 0.060650f, 0.018321f, 0.043161f, 0.049460f, -0.041781f, -0.020833f, 0.051775f, -0.021436f, -0.086900f, -0.004041f, 0.066928f, -0.007361f, -0.034428f, 0.078878f, 0.015952f, -0.038804f, -0.078901f, 0.053370f, 0.030951f, 0.098675f, -0.036250f, -0.072992f, 0.044251f, -0.057683f, -0.073137f, -0.016865f, 0.052615f, -0.003485f, -0.083788f, 0.003946f, 0.032386f, 0.021196f, 0.028243f, -0.040600f, 0.079227f, 0.026481f, 0.032987f, 0.105819f, -0.009370f, 0.059607f, -0.081750f, -0.097555f, 0.005703f, -0.043141f, -0.037007f, -0.039539f, -0.049049f, 0.059691f, 0.028265f, 0.041178f, 0.078277f, 0.053356f, 0.001138f, -0.022935f, 0.082569f, 0.044657f, -0.082650f, 0.023542f, -0.044314f, 0.105645f, -0.096073f, 0.011502f, 0.052836f, -0.051085f, 0.079057f, 0.061211f, 0.064764f, -0.078984f, 0.001958f, -0.038288f, 0.057265f, 0.036232f, 0.024845f, -0.085401f, 0.014770f, 0.015558f, 0.080130f, 0.032278f, 0.100806f, 0.102898f, 0.042249f, 0.006856f, 0.010735f, 0.083477f, -0.087874f, -0.092436f, -0.081568f, 0.048255f, -0.023665f, 0.010532f, 0.033358f, -0.037465f, 0.012012f, 0.017756f, 0.083076f, 0.032171f, 0.025668f, -0.071554f, 0.077804f, -0.011045f, 0.057562f, -0.101605f, -0.016500f, -0.061924f, -0.035092f, 0.070443f, 0.037575f, -0.005365f, -0.087361f, 0.077965f, 0.102813f, -0.054239f, -0.095111f, 0.010090f, 0.072398f, 0.070565f, 0.007718f, -0.027943f, -0.035353f, 0.064127f, -0.007936f, -0.055984f, -0.034399f, -0.053504f, -0.084442f, 0.005481f, 0.072356f, 0.049077f, -0.070553f, -0.085479f, -0.030719f, -0.041467f, 0.064004f, 0.096088f, -0.010991f, 0.020197f, 0.112704f, 0.058807f, 0.011657f, -0.068577f, -0.026399f, 0.063960f, -0.070120f, 0.051929f, 0.049989f, -0.033321f, -0.006630f, 0.007071f, 0.041761f, 0.017886f, -0.072305f, 0.066429f, -0.026304f, 0.107523f, -0.041902f, -0.044942f, -0.031577f, 0.026451f, 0.068074f, -0.072175f, -0.042546f, 0.000474f, 0.007967f, -0.004538f, 0.053774f, 0.069819f, -0.009538f, 0.023949f, 0.043325f, 0.010279f, -0.025463f, 0.019166f, 0.029434f, 0.070278f, -0.077896f, 0.092669f, -0.005956f, -0.088859f, -0.030683f, 0.030457f, -0.018798f, 0.106828f, -0.011726f, -0.039077f, 0.076214f, -0.007964f, 0.029752f, 0.075297f, 0.040348f, -0.024541f, -0.069270f, 0.016140f, 0.088463f, -0.004462f, 0.090838f, -0.012227f, 0.034262f, 0.077825f, 0.023627f, -0.078326f, 0.094156f, -0.041240f, 0.028583f, 0.011431f, -0.005977f, -0.066350f, 0.031032f, -0.088041f, 0.091125f, 0.064983f, -0.002891f, 0.001842f, -0.022681f, 0.002157f, 0.074609f, -0.045170f, -0.009845f, -0.033522f, -0.041045f, -0.071088f, 0.098860f, 0.024881f, 0.041875f, -0.064373f, -0.011566f, 0.089821f, -0.069314f, -0.050732f, 0.016492f, 0.034990f, 0.070991f, 0.069705f, -0.054849f, -0.052821f, -0.027310f, -0.103769f, -0.071876f, -0.051729f, -0.017427f, -0.033676f, 0.088487f, -0.049460f, 0.096471f, 0.078956f, 0.007870f, -0.060209f, -0.041668f, 0.067063f, -0.045759f, -0.007442f, -0.019558f, 0.025103f, 0.094550f, -0.062325f, -0.018958f, -0.054859f, -0.040461f, -0.086292f, -0.043591f, 0.090426f, -0.051250f, -0.020039f, 0.075962f, 0.056334f, 0.021120f, 0.043268f, -0.067416f, -0.016830f, -0.083977f, -0.036357f, -0.062436f, -0.013803f, -0.008993f, 0.092635f, -0.028420f, 0.002914f, 0.065716f, 0.043970f, 0.044544f, -0.039363f, 0.005939f, -0.077433f, -0.046976f, -0.029137f, 0.052171f, -0.005131f, 0.072696f, 0.081919f, -0.088960f, 0.020790f, 0.012166f, 0.073502f, -0.091261f, -0.008861f, -0.059083f, -0.101085f, 0.024705f, 0.066299f, 0.067093f, -0.084509f, -0.010897f, -0.101202f, -0.036222f, -0.061553f, -0.064086f, -0.023102f, -0.058784f, 0.081702f, -0.039029f, 0.089358f, -0.064395f, 0.037909f, -0.090302f, 0.007273f, -0.081616f, 0.048137f, 0.076209f, -0.078054f, 0.075861f, 0.069708f, -0.014848f, 0.090877f, -0.026924f, -0.032326f, -0.068429f, 0.036460f, -0.080588f, -0.019188f, 0.052022f, 0.073936f, -0.082622f, 0.062249f, 0.050885f, -0.004948f, 0.004743f, -0.094656f, 0.031016f, -0.030526f, 0.060172f, -0.038412f, 0.016695f, 0.000463f, 0.072806f, -0.034776f, -0.090333f, 0.065852f, -0.016131f, 0.018043f, -0.091728f, 0.100241f, 0.064870f, 0.018712f, -0.094651f, -0.038719f, 0.109766f, 0.040088f, -0.075022f, -0.020195f, 0.085246f, -0.006605f, -0.107723f, 0.035588f, -0.030165f, -0.086761f, -0.005776f, 0.003376f, -0.084293f, 0.024106f, -0.009846f, 0.062382f, -0.014977f, -0.003202f, 0.030928f, 0.090361f, -0.019864f, 0.013936f, 0.051128f, -0.105818f, 0.056126f, -0.008338f, 0.036462f, -0.015484f, 0.043410f, 0.040483f, -0.049132f, 0.042916f, 0.079376f, -0.064373f, 0.061071f, 0.038897f, 0.099586f, -0.043296f, -0.072350f, -0.028833f, -0.059462f, 0.060560f, 0.043103f, 0.016683f, -0.067585f, 0.058022f, 0.080003f, 0.004330f, 0.019497f, 0.016779f, -0.023200f, -0.040459f, -0.035671f, -0.062849f, 0.068374f, 0.088010f, -0.016996f, -0.036036f, 0.089176f, -0.043170f, 0.006923f, -0.072749f, -0.045459f, 0.033761f, 0.043585f, 0.030216f, 0.064573f, 0.106138f, 0.056909f, -0.022262f, 0.080354f, -0.079278f, 0.021322f, -0.002987f, -0.050876f, 0.091274f, -0.045314f, 0.036987f, 0.089124f, -0.013969f, -0.061404f, 0.048469f, -0.011160f, 0.087607f, 0.073484f, 0.082149f, -0.030142f, 0.066104f, 0.080601f, 0.015534f, -0.008391f, -0.104485f, 0.048956f, 0.063385f, -0.062758f, -0.044133f, -0.016139f, -0.068459f, -0.092297f, -0.005103f, -0.057017f, -0.005554f, 0.009379f, 0.081738f, 0.091453f, -0.080015f, 0.064338f, -0.066425f, 0.006226f, -0.052306f, -0.011708f, 0.052538f, 0.002922f, 0.068611f, 0.048396f, 0.068575f, 0.002315f, 0.063515f, -0.028316f, -0.046271f, -0.005054f, -0.035044f, -0.071951f, -0.006419f, -0.080806f, 0.084033f, -0.084634f, -0.007066f, -0.049882f, -0.083519f, 0.057977f, 0.026333f, -0.071222f, 0.012409f, 0.060725f, 0.065921f, -0.065728f, 0.043573f, 0.048225f, 0.058493f, 0.014604f, -0.012140f, 0.080146f, 0.068616f, -0.003705f, -0.039931f, 0.055801f, 0.005688f, -0.081666f, -0.022340f, 0.069176f, 0.002159f, -0.079886f, 0.008682f, 0.085406f, 0.074207f, 0.014142f, 0.097250f, 0.073697f, 0.011111f, 0.030507f, 0.030526f, 0.077715f, -0.079477f, 0.064676f, -0.026482f, 0.047585f, 0.063155f, -0.004176f, -0.054451f, -0.009364f, -0.098950f, 0.025233f, 0.073586f, 0.068536f, -0.028984f, 0.005637f, -0.040587f, 0.011373f, -0.023923f, 0.046108f, -0.033853f, 0.082082f, 0.049026f, -0.083128f, -0.095068f, 0.097371f, -0.042496f, -0.044984f, -0.059885f, 0.081736f, 0.015230f, 0.017037f, 0.015284f, -0.044690f, 0.009996f, -0.021439f, -0.072337f, 0.015490f, -0.011089f, 0.069959f, -0.025713f, 0.014958f, 0.048219f, 0.000072f, 0.103446f, 0.045586f, 0.068439f, 0.088856f, -0.035555f, -0.000384f, 0.050475f, 0.037432f, 0.081831f, -0.028360f, -0.056956f, 0.081479f, 0.073874f, -0.058134f, 0.003180f, 0.052035f, -0.034432f, -0.001897f, 0.025922f, 0.004515f, 0.036520f, -0.085462f, 0.000027f, -0.020895f, 0.026637f, 0.041955f, -0.075450f, -0.078863f, 0.042759f, 0.043387f, 0.000869f, 0.081718f, -0.012493f, -0.081166f, 0.035020f, 0.010374f, 0.034389f, 0.027900f, 0.086020f, -0.071593f, -0.086743f, -0.077374f, -0.031540f, 0.008359f, 0.012274f, -0.048201f, 0.008838f, -0.006970f, 0.005050f, 0.074032f, 0.008145f, 0.062661f, -0.050543f, -0.000860f, 0.072023f, -0.057078f, -0.022386f, 0.036729f, -0.066275f, 0.034829f, -0.088606f, 0.098749f, -0.009398f, -0.045852f, -0.060319f, 0.002448f, 0.015826f, -0.065505f, -0.051467f, 0.082746f, 0.022370f, -0.058473f, -0.052761f, 0.076336f, -0.025469f, -0.075417f, 0.107894f, -0.040125f, -0.082786f, 0.002760f, -0.013773f, 0.069484f, -0.079066f, -0.095948f, -0.064336f, 0.066113f, 0.003012f, -0.078493f, 0.031587f, 0.025820f, -0.070064f, 0.023868f, -0.040857f, -0.061669f, 0.017239f, -0.038171f, -0.041001f, 0.088398f, -0.062430f, -0.025095f, -0.013051f, -0.037723f, -0.074214f, 0.048522f, -0.026967f, -0.069966f, -0.008206f, -0.058177f, -0.045937f, 0.079596f, -0.035524f, 0.024797f, -0.001362f, -0.071661f, 0.026513f, 0.060369f, -0.095352f, 0.052543f, 0.021171f, 0.068442f, -0.089741f, -0.038964f, 0.049989f, -0.079234f, 0.053322f, 0.074134f, -0.020759f, 0.000361f, -0.050560f, -0.108233f, -0.048736f, 0.078655f, 0.066798f, -0.057964f, 0.106096f, -0.027953f, -0.053041f, -0.069264f, 0.084705f, 0.109608f, -0.048174f, 0.030167f, -0.019793f, -0.085711f, -0.004242f, 0.022593f, -0.061944f, 0.074783f, -0.014937f, -0.041524f, 0.025490f, 0.068279f, -0.049808f, 0.055482f, -0.002323f, 0.078672f, 0.064495f, -0.019699f, -0.110413f, 0.019125f, -0.073477f, -0.063335f, 0.076678f, 0.086897f, -0.047543f, -0.033638f, -0.050253f, -0.008483f, 0.083882f, 0.030887f, 0.085018f, -0.052280f, 0.044798f, 0.082273f, -0.030767f, 0.029103f, -0.021742f, -0.043796f, 0.077690f, -0.013517f, -0.072858f, -0.031025f, -0.022247f, 0.043197f, 0.073892f, 0.046586f, 0.097754f, 0.009630f, 0.033098f, -0.023704f, -0.091152f, -0.015600f, 0.051035f, -0.055235f, 0.075152f, 0.057536f, -0.073721f, -0.048849f, 0.076098f, -0.046061f, -0.039676f, -0.017989f, 0.042710f, -0.088821f, -0.067372f, 0.012351f, -0.030976f, 0.030265f, -0.053078f, 0.090603f, 0.061984f, -0.073493f, 0.042579f, 0.102408f, 0.098979f, 0.056557f, -0.066151f, 0.001169f, -0.035706f, 0.079365f, 0.053080f, 0.017189f, 0.021739f, -0.024525f, -0.037072f, 0.073906f, -0.033435f, -0.098705f, -0.002423f, 0.075490f, 0.028280f, 0.090706f, -0.081154f, 0.070146f, -0.007406f, -0.015047f, -0.023164f, -0.070701f, -0.038182f, 0.043747f, -0.078678f, -0.056402f, -0.078679f, 0.082305f, 0.037337f, -0.071202f, 0.060057f, 0.096891f, 0.069121f, 0.097711f, -0.100527f, 0.001551f, -0.054034f, 0.024217f, -0.040587f, -0.081473f, 0.003519f, 0.014784f, 0.080099f, -0.075711f, -0.052561f, 0.085569f, 0.025365f, 0.062390f, 0.044588f, 0.047775f, 0.014453f, -0.069198f, 0.070993f, 0.010217f, -0.079668f, 0.069992f, 0.091063f, -0.043769f, -0.047486f, -0.097699f, 0.047073f, 0.076319f, -0.056537f, -0.013281f, -0.064665f, -0.072200f, 0.020680f, 0.074378f, -0.041311f, 0.062230f, -0.059644f, -0.050931f, 0.091336f, 0.015953f, 0.025086f, -0.072466f, -0.062993f, -0.079556f, 0.061042f, -0.075499f, 0.075665f, -0.024076f, 0.042460f, -0.011162f, -0.063705f, -0.073903f, -0.052657f, -0.004262f, 0.052321f, -0.012577f, 0.085099f, -0.000614f, -0.108486f, -0.013317f, 0.020749f, -0.055411f, 0.027254f, -0.004797f, -0.080840f, 0.067618f, 0.019687f, -0.081893f, -0.015971f, -0.028170f, 0.064105f, -0.054603f, 0.099442f, -0.005580f, -0.036019f, 0.047778f, 0.055028f, -0.018754f, 0.011616f, 0.054195f, 0.070306f, 0.076312f, -0.078796f, 0.057752f, -0.073777f, -0.067248f, 0.040817f, -0.062603f, 0.031729f, -0.024613f, -0.028078f, -0.025734f, -0.075969f, 0.011241f, 0.074187f, 0.038097f, -0.027168f, 0.077181f, -0.010162f, 0.046818f, 0.009775f, 0.076810f, 0.066382f, -0.059546f, -0.088076f, 0.049929f, 0.075999f, 0.005043f, 0.052306f, -0.083938f, -0.042728f, -0.076734f, 0.037286f, -0.058731f, -0.086401f, -0.037583f, 0.046252f, 0.007840f, -0.035832f, 0.060639f, -0.056970f, -0.030879f, 0.015019f, -0.013607f, -0.022343f, -0.073384f, -0.012873f, -0.062241f, -0.007426f, 0.060179f, 0.074988f, 0.067016f, -0.024565f, 0.029104f, 0.060317f, -0.027977f, -0.022247f, -0.069575f, 0.031856f, 0.050092f, -0.023132f, 0.059314f, 0.014202f, 0.067530f, -0.033033f, 0.052560f, -0.001935f, -0.086590f, -0.001386f, -0.004278f, -0.057117f, 0.086986f, -0.011819f, -0.079533f, -0.035665f, -0.003692f, 0.083272f, 0.068896f, -0.049513f, 0.051882f, -0.043884f, -0.043214f, -0.071650f, -0.093064f, 0.018991f, 0.069962f, -0.013515f, 0.055818f, 0.057195f, 0.022896f, 0.110193f, 0.077728f, -0.045897f, 0.056895f, 0.032358f, -0.029755f, -0.064305f, -0.065913f, 0.048989f, -0.044828f, 0.108010f, 0.034391f, 0.009888f, 0.028688f, 0.035580f, 0.104328f, -0.051394f, -0.051121f, 0.047338f, -0.044461f, 0.056834f, -0.014359f, -0.066759f, -0.104163f, 0.011909f, 0.074801f, -0.050855f, 0.067334f, 0.064599f, -0.069647f, -0.001190f, 0.026564f, -0.071871f, -0.015449f, -0.013625f, -0.089452f, -0.054870f, -0.068443f, -0.008052f, 0.037720f, 0.075283f, -0.068626f, 0.039870f, 0.044174f, 0.081187f, 0.077470f, -0.079671f, -0.097839f, 0.073461f, -0.079397f, -0.044495f, 0.064030f, 0.099355f, -0.016809f, 0.055253f, 0.071761f, 0.010887f, 0.001648f, 0.029563f, -0.040488f, 0.036154f, -0.035770f, -0.059632f, 0.000474f, 0.049813f, 0.031152f, 0.072686f, 0.024150f, -0.061578f, -0.061694f, -0.095358f, -0.044807f, 0.000512f, 0.071481f, 0.066918f, -0.014063f, -0.000196f, 0.048451f, -0.045925f, 0.009799f, -0.079253f, -0.001543f, -0.079513f, -0.011459f, -0.030119f, -0.021761f, -0.038933f, -0.056458f, -0.035672f, -0.054676f, 0.035162f, 0.055696f, 0.004937f, -0.093019f, 0.026865f, -0.096296f, -0.087338f, -0.042651f, -0.033678f, 0.016364f, 0.069839f, 0.044149f, 0.049254f, 0.102442f, 0.013138f, 0.012328f, 0.032001f, 0.062380f, -0.004757f, 0.069988f, 0.041283f, -0.025209f, -0.109024f, -0.046187f, 0.046785f, 0.026572f, -0.060013f, 0.003626f, 0.043253f, -0.084336f, -0.001940f, -0.007895f, -0.007986f, -0.007041f, -0.040026f, 0.058049f, -0.091522f, -0.102734f, -0.018669f, 0.084852f, -0.028090f, -0.063801f, 0.094402f, -0.073060f, -0.006788f, 0.044275f, -0.047859f, -0.051405f, -0.008311f, 0.049603f, 0.075790f, -0.097104f, -0.078141f, 0.105003f, 0.021340f, 0.000690f, 0.049476f, -0.096346f, -0.108475f, 0.075724f, 0.077180f, 0.063062f, -0.077577f, 0.009230f, 0.080685f, 0.095813f, -0.083552f, 0.037855f, -0.090806f, 0.096491f, -0.030473f, 0.076206f, -0.013269f, -0.035843f, -0.043562f, 0.056693f, -0.074191f, 0.075757f, 0.033745f, 0.084202f, 0.083420f, -0.056423f, 0.078744f, -0.078152f, -0.081117f, 0.095809f, 0.077487f, -0.057603f, 0.001704f, 0.009369f, 0.080791f, 0.010391f, 0.057213f, -0.015518f, 0.039836f, 0.035587f, 0.030097f, -0.109734f, -0.090000f, -0.037637f, -0.084863f, -0.031742f, -0.004392f, 0.100656f, 0.009207f, 0.040676f, 0.069702f, -0.021716f, -0.078883f, -0.052387f, 0.052213f, 0.082513f, -0.017904f, -0.043471f, 0.097103f, -0.014109f, 0.043604f, -0.029657f, -0.063734f, -0.006429f, 0.088145f, 0.029690f, -0.072219f, 0.051041f, 0.047594f, -0.051149f, 0.004686f, 0.046687f, -0.074125f, 0.076381f, 0.004915f, 0.109351f, -0.075864f, 0.010235f, -0.079044f, -0.078817f, -0.056538f, -0.020636f, -0.000021f, 0.072172f, 0.041458f, -0.022188f, 0.105942f, 0.019479f, -0.043577f, 0.048366f, 0.008187f, 0.060321f, 0.071863f, -0.041933f, 0.027206f, -0.059618f, 0.040075f, 0.085505f, 0.078697f, -0.007493f, -0.090290f, 0.092183f, -0.031230f, -0.051656f, -0.021150f, -0.005333f, 0.101910f, 0.109056f, -0.037605f, -0.011659f, 0.012135f, -0.088010f, -0.081345f, 0.080537f, -0.082754f, -0.074162f, -0.031429f, 0.060647f, -0.063819f, -0.031864f, -0.047664f, 0.078804f, -0.065992f, -0.001625f, 0.086673f, 0.035427f, -0.047462f, 0.054756f, 0.073449f, -0.029130f, 0.032464f, -0.093520f, 0.087421f, -0.063933f, -0.016602f, 0.001631f, -0.055778f, 0.042637f, -0.003686f, 0.028383f, -0.014088f, -0.005097f, 0.072713f, 0.046210f, 0.058374f, 0.005511f, 0.020054f, -0.078096f, -0.012534f, 0.084651f, 0.008462f, 0.086057f, -0.034288f, -0.087576f, 0.041894f, -0.067298f, 0.066534f, -0.034410f, -0.006627f, 0.071073f, 0.063761f, 0.010228f, 0.076739f, 0.015930f, -0.031211f, -0.050193f, 0.058659f, -0.003867f, -0.032060f, -0.104698f, -0.052073f, 0.074053f, 0.052166f, 0.035876f, -0.096189f, -0.083607f, -0.021295f, -0.004743f, 0.089633f, -0.030838f, -0.023600f, 0.012826f, 0.079188f, 0.048020f, 0.081050f, -0.067114f, -0.078760f, 0.001573f, 0.026214f, 0.104012f, -0.021730f, -0.039172f, -0.008275f, 0.029042f, -0.000869f, 0.028227f, -0.010869f, 0.085625f, -0.072779f, -0.021987f, 0.051006f, -0.020404f, 0.044699f, -0.052727f, -0.055120f, -0.035946f, 0.061040f, -0.023750f, -0.041397f, -0.030155f, -0.105127f, 0.061040f, -0.069066f, 0.024609f, -0.076404f, 0.057277f, -0.072637f, -0.091217f, -0.049734f, 0.091652f, -0.035469f, 0.008280f, -0.030574f, -0.028856f, 0.096358f, 0.066740f, 0.062980f, -0.009828f, 0.065016f, -0.020908f, 0.004192f, -0.016656f, -0.067566f, 0.069835f, -0.058910f, -0.069499f, -0.048476f, 0.053229f, 0.069569f, 0.004504f, -0.100546f, 0.093072f, -0.077806f, 0.057705f, 0.073045f, 0.074498f, 0.044106f, -0.028528f, -0.041154f, -0.027052f, -0.043411f, 0.057513f, 0.077472f, 0.041775f, -0.046433f, -0.096732f, 0.020994f, -0.000435f, -0.073947f, -0.010124f, 0.003043f, 0.009531f, -0.011566f, 0.102787f, -0.096757f, 0.016774f, 0.094265f, -0.035471f, -0.071208f, 0.064528f, -0.016618f, 0.112366f, 0.011685f, 0.080108f, -0.081648f, -0.070678f, 0.050532f, -0.024667f, 0.076381f, -0.016376f, 0.032720f, 0.024030f, -0.062051f, 0.028513f, 0.035757f, -0.090962f, 0.027124f, -0.046380f, 0.007541f, -0.025509f, -0.063208f, -0.048160f, -0.091892f, -0.059226f, 0.058930f, -0.104150f, 0.001236f, 0.053918f, -0.065109f, -0.038720f, 0.045166f, 0.045959f, 0.022052f, -0.055928f, 0.039341f, -0.074132f, -0.061747f, 0.060327f, -0.041338f, -0.020880f, -0.061899f, -0.027860f, -0.040749f, 0.044614f, -0.063829f, -0.048633f, 0.042078f, 0.071085f, 0.006583f, -0.073844f, -0.005875f, 0.020085f, -0.041418f, 0.051628f, 0.064667f, 0.029663f, -0.060919f, 0.029834f, 0.068362f, -0.035020f, 0.074762f, 0.038471f, -0.024330f, 0.008923f, -0.022518f, -0.092688f, 0.075098f, 0.028707f, 0.008495f, -0.066486f, -0.034098f, 0.087408f, -0.077660f, -0.086057f, -0.048252f, -0.057571f, 0.072678f, 0.041267f, -0.082541f, -0.080941f, -0.001078f, 0.036430f, -0.065412f, 0.032525f, -0.066445f, -0.015538f, -0.005876f, -0.086480f, 0.101383f, 0.100745f, -0.026922f, -0.058536f, 0.075352f, 0.062477f, 0.036954f, -0.019587f, -0.020630f, 0.064037f, 0.019476f, 0.031627f, 0.021205f, 0.033026f, -0.061486f, -0.025612f, -0.066795f, -0.048500f, -0.046825f, -0.002784f, -0.100765f, 0.082499f, -0.007885f, -0.072346f, 0.038891f, -0.054293f, -0.087802f, 0.057037f, -0.072677f, -0.091920f, -0.074599f, 0.059755f, 0.019415f, -0.081876f, -0.053800f, 0.051738f, -0.055779f, 0.003614f, -0.049687f, -0.006149f, 0.057094f, -0.054491f, 0.047696f, -0.007234f, -0.087413f, -0.016503f, 0.050999f, 0.098519f, 0.083371f, -0.073926f, -0.042030f, 0.070143f, -0.001316f, 0.062795f, 0.064802f, -0.079108f, -0.043023f, 0.007221f, 0.099966f, 0.087943f, -0.002056f, -0.094077f, -0.019615f, -0.005982f, 0.089832f, -0.055736f, -0.053668f, 0.011993f, -0.010719f, -0.066971f, -0.066814f, -0.010257f, 0.071537f, 0.072965f, 0.085090f, -0.022562f, -0.027459f, -0.108372f, 0.082361f, 0.017380f, 0.043122f, -0.001300f, 0.093032f, -0.094896f, -0.060462f, -0.009625f, -0.067048f, -0.067014f, 0.027862f, -0.061806f, 0.029680f, 0.090752f, 0.047828f, -0.033191f, -0.085439f, 0.071249f, 0.089196f, -0.013994f, -0.016370f, -0.083155f, 0.055354f, 0.000604f, 0.043580f, 0.028574f, -0.103033f, -0.016174f, 0.054177f, 0.033617f, 0.039233f, 0.030115f, 0.034795f, 0.019903f, 0.034482f, 0.004371f, 0.041547f, -0.014293f, 0.008664f, -0.033050f, -0.060361f, -0.050697f, -0.071653f, -0.048696f, -0.006198f, -0.089739f, -0.040859f, -0.030402f, -0.064294f, -0.028881f, -0.078934f, 0.033586f, -0.016214f, -0.079358f, 0.030878f, -0.047919f, -0.086965f, -0.048475f, -0.006009f, 0.045542f, 0.009481f, -0.100438f, 0.066923f, -0.029817f, 0.019229f, -0.075416f, -0.039007f, -0.087050f, 0.052010f, -0.054798f, 0.020394f, -0.058256f, -0.083473f, 0.074067f, 0.003258f, 0.079336f, -0.048763f, 0.059055f, 0.086545f, -0.033776f, 0.087748f, -0.016912f, -0.025872f, 0.086959f, 0.080663f, -0.039104f, 0.050994f, -0.045479f, 0.108113f, 0.054511f, 0.094929f, -0.000553f, -0.029120f, -0.062668f, -0.008307f, 0.037352f, 0.034806f, -0.051427f, -0.004694f, -0.009017f, -0.045086f, 0.001481f, -0.026109f, 0.019203f, -0.046954f, 0.091137f, -0.045609f, 0.032020f, -0.065960f, 0.036323f, -0.060115f, 0.105136f, -0.008800f, 0.009263f, -0.044268f, 0.078856f, 0.043150f, -0.060832f, 0.066184f, -0.092514f, 0.042738f, -0.020273f, 0.062330f, 0.003813f, -0.068844f, -0.052896f, 0.102936f, -0.040622f, -0.048571f, 0.057022f, -0.090578f, -0.082453f, -0.028036f, -0.089953f, 0.089167f, 0.028770f, -0.006923f, 0.073222f, 0.035142f, -0.072858f, -0.065627f, 0.063955f, -0.045627f, -0.024582f, -0.009996f, -0.071991f, 0.030853f, 0.021789f, 0.037830f, -0.031166f, -0.006093f, -0.071155f, -0.009148f, 0.034408f, 0.072012f, 0.016203f, 0.015615f, -0.011524f, -0.086096f, 0.005681f, -0.082513f, 0.023183f, 0.060897f, 0.079054f, -0.051704f, -0.014216f, -0.074347f, 0.081639f, 0.073597f, 0.050801f, -0.098325f, 0.022433f, -0.038284f, -0.063827f, 0.068504f, -0.071904f, -0.003873f, -0.008113f, -0.044769f, -0.016784f, -0.103650f, -0.110200f, 0.062541f, -0.023003f, 0.082833f, -0.006561f, 0.003604f, -0.021251f, -0.090479f, -0.036792f, 0.014753f, 0.039295f, 0.025919f, 0.038780f, -0.076503f, 0.020857f, 0.085771f, -0.058018f, -0.038524f, 0.062764f, 0.074488f, -0.035826f, -0.017916f, 0.019205f, -0.014883f, 0.031364f, -0.015756f, 0.069365f, 0.061502f, 0.054314f, 0.014431f, 0.031739f, -0.018647f, -0.106071f, -0.024837f, -0.069203f, -0.027650f, 0.081739f, 0.004953f, 0.049666f, -0.067103f, -0.049995f, -0.052244f, 0.063100f, -0.028685f, 0.004894f, -0.058845f, -0.075186f, -0.038368f, -0.022060f, -0.018776f, 0.005986f, -0.038961f, 0.036464f, -0.064678f, -0.049132f, 0.047108f, 0.009538f, -0.060853f, 0.006551f, -0.048094f, 0.025805f, -0.081866f, 0.021719f, 0.007337f, -0.050468f, 0.060641f, -0.046059f, -0.070601f, -0.077272f, 0.079616f, 0.005897f, -0.014880f, -0.078874f, -0.066403f, -0.030792f, -0.012617f, 0.054748f, -0.017387f, 0.071425f, -0.033505f, -0.085968f, -0.028343f, -0.095664f, -0.047690f, 0.084542f, 0.054489f, -0.048030f, -0.034432f, -0.019069f, 0.057178f, -0.105218f, -0.081602f, -0.059168f, 0.033418f, -0.026742f, 0.061807f, -0.028216f, -0.016858f, 0.025208f, 0.023606f, -0.049200f, -0.051341f, -0.007328f, -0.059526f, 0.081105f, -0.005980f, -0.058811f, 0.029243f, -0.067070f, 0.041545f, -0.004119f, -0.060004f, -0.098890f, 0.113812f, -0.031626f, 0.099559f, 0.013630f, -0.013427f, -0.069106f, 0.095828f, 0.056348f, -0.011854f, -0.058131f, -0.051469f, -0.024878f, -0.015726f, 0.019716f, -0.098678f, -0.100810f, -0.011661f, -0.099424f, -0.092030f, -0.036056f, -0.088102f, -0.010863f, -0.034363f, -0.060412f, -0.016168f, -0.082378f, -0.011657f, -0.016164f, 0.062395f, 0.086676f, -0.025975f, -0.040669f, 0.006612f, -0.079560f, -0.039191f, -0.074840f, -0.020251f, -0.084294f, 0.001216f, 0.019568f, 0.081025f, -0.073096f, -0.045796f, 0.102499f, 0.068217f, 0.036596f, 0.072853f, -0.044364f, 0.084893f, 0.060444f, -0.042430f, 0.006924f, 0.068879f, 0.019858f, 0.041139f, 0.016269f, -0.054666f, 0.102960f, -0.025358f, -0.028846f, 0.060390f, 0.013078f, -0.043012f, -0.032033f, -0.068841f, -0.075471f, 0.034631f, -0.006844f, -0.063376f, -0.075263f, -0.080252f, 0.056775f, -0.044634f, -0.061598f, -0.101826f, -0.081587f, 0.084147f, -0.065050f, 0.071870f, -0.078058f, -0.059493f, 0.066299f, -0.009790f, -0.050792f, 0.054603f, -0.069032f, 0.066140f, 0.066866f, -0.086843f, 0.045626f, 0.107650f, -0.013472f, 0.003125f, 0.039874f, -0.034207f, 0.026212f, 0.009656f, -0.004197f, 0.092034f, 0.071271f, 0.099657f, 0.059121f, -0.084305f, 0.027978f, 0.023815f, 0.048288f, -0.050887f, -0.031041f, -0.097223f, -0.070276f, 0.003358f, 0.002086f, -0.044078f, 0.005652f, -0.021032f, -0.081451f, -0.083562f, 0.039335f, 0.089374f, 0.025126f, -0.060631f, 0.058839f, 0.000521f, -0.088498f, 0.030532f, -0.054767f, -0.024892f, -0.024677f, 0.042981f, -0.026903f, -0.079816f, -0.071204f, 0.015162f, 0.041102f, -0.083297f, 0.011298f, -0.062252f, 0.038571f, 0.055134f, -0.053143f, -0.010570f, 0.041952f, -0.048893f, -0.074986f, 0.091020f, 0.052959f, 0.040430f, 0.084270f, 0.016303f, 0.004240f, -0.007266f, 0.038767f, -0.011042f, -0.077855f, -0.086875f, 0.107843f, -0.102373f, 0.048290f, 0.076842f, -0.066449f, 0.029078f, -0.053162f, -0.064774f, 0.058573f, 0.064725f, -0.026334f, 0.016255f, -0.069186f, 0.066811f, 0.059199f, -0.027735f, 0.045472f, 0.081876f, -0.104722f, 0.064524f, 0.027978f, -0.031600f, -0.010947f, 0.077993f, 0.029932f, 0.016667f, -0.017958f, 0.087435f, -0.055126f, -0.092556f, 0.039871f, 0.024719f, 0.019729f, -0.057454f, -0.035145f, 0.034157f, -0.052689f, 0.017624f, -0.020422f, 0.013386f, -0.039406f, -0.072802f, 0.056253f, -0.013800f, -0.041174f, 0.054616f, -0.004095f, -0.063264f, 0.028885f, -0.031757f, 0.021027f, 0.008003f, 0.078873f, -0.073926f, -0.051606f, 0.078335f, 0.030719f, -0.012000f, 0.058139f, -0.000804f, -0.017064f, -0.067302f, -0.004052f, -0.028580f, 0.021617f, -0.021990f, 0.071587f, 0.064223f, -0.067950f, 0.012862f, 0.032420f, -0.006426f, -0.064604f, 0.003644f, -0.022085f, -0.044755f, 0.007731f, -0.048121f, -0.064700f, 0.057594f, -0.040533f, 0.060624f, 0.107378f, -0.002181f, 0.073241f, -0.052579f, 0.046866f, 0.096920f, 0.009296f, -0.062861f, -0.080615f, 0.090500f, -0.029779f, -0.010511f, -0.003507f, -0.027552f, 0.060208f, 0.100613f, 0.018764f, 0.076586f, -0.053769f, -0.001294f, 0.041031f, 0.051702f, 0.038892f, -0.043790f, 0.085924f, -0.058131f, -0.032794f, 0.010331f, 0.001442f, -0.052443f, 0.065519f, 0.001858f, -0.092325f, 0.045631f, 0.078189f, -0.041194f, 0.006636f, 0.021755f, 0.053669f, -0.050869f, 0.084795f, 0.032379f, -0.090330f, 0.007328f, -0.105237f, 0.016799f, 0.007133f, 0.015778f, 0.088126f, -0.028256f, 0.064355f, 0.005225f, 0.046684f, 0.073468f, 0.056856f, 0.072558f, 0.020062f, 0.063728f, 0.086870f, 0.064625f, -0.017239f, 0.084964f, -0.102567f, 0.015231f, 0.006600f, -0.060106f, -0.007071f, -0.070524f, 0.026095f, 0.053430f, -0.056066f, -0.047916f, 0.040327f, -0.034426f, -0.021213f, -0.018136f, -0.007152f, -0.011224f, -0.077311f, -0.047615f, -0.083691f, -0.014984f, 0.077614f, -0.064304f, 0.017762f, -0.018024f, 0.056868f, -0.011575f, 0.022460f, -0.012835f, -0.002512f, 0.065061f, 0.109397f, -0.081110f, 0.005035f, -0.081290f, -0.102769f, 0.062585f, 0.086391f, 0.030247f, -0.067997f, -0.095442f, -0.018817f, -0.015524f, -0.091507f, 0.048442f, -0.009278f, 0.106936f, 0.075367f, -0.015881f, 0.040132f, -0.047904f, -0.030830f, -0.081749f, 0.014514f, -0.095961f, -0.024866f, -0.048591f, 0.046414f, -0.038093f, 0.081834f, -0.069536f, 0.077534f, 0.030053f, -0.089657f, 0.007398f, -0.029358f, 0.057157f, 0.019202f, -0.088751f, -0.002104f, 0.060590f, -0.033545f, 0.062366f, -0.088591f, 0.087921f, -0.015275f, 0.096426f, 0.005472f, 0.038671f, 0.097564f, 0.029459f, 0.018014f, -0.037004f, -0.084325f, -0.002036f, -0.025090f, 0.080522f, -0.048296f, 0.058547f, -0.076746f, 0.061382f, 0.043455f, -0.006128f, -0.034771f, -0.076346f, 0.029922f, -0.006088f, 0.035694f, 0.090411f, -0.031638f, 0.013117f, -0.026410f, -0.102732f, 0.011492f, -0.032132f, -0.106455f, -0.006701f, -0.066369f, 0.041145f, 0.005660f, -0.001815f, 0.076726f, 0.091838f, 0.036282f, 0.010442f, -0.045248f, -0.084512f, -0.073181f, -0.037813f, -0.068612f, 0.004999f, 0.015251f, -0.018911f, 0.049639f, 0.034200f, 0.027940f, -0.013614f, -0.101563f, -0.001724f, 0.015152f, -0.006568f, -0.082507f, 0.042240f, -0.034795f, -0.078591f, -0.010260f, 0.088884f, -0.085088f, -0.110462f, 0.002963f, 0.017724f, -0.090160f, -0.087570f, 0.074848f, -0.023915f, -0.063988f, -0.051187f, 0.013726f, -0.046061f, -0.085572f, 0.012296f, -0.088598f, -0.066519f, -0.078962f, -0.080250f, 0.062385f, -0.065499f, -0.058064f, 0.006327f, -0.084873f, 0.032426f, -0.016711f, 0.085335f, -0.104186f, 0.053279f, -0.079840f, 0.071870f, -0.036687f, 0.008733f, -0.097544f, 0.061546f, -0.037626f, 0.069855f, 0.031832f, -0.047177f, -0.060537f, -0.047123f, 0.046323f, -0.022777f, -0.038513f, 0.099591f, 0.056368f, 0.031301f, 0.073012f, -0.060584f, 0.046763f, -0.019303f, 0.030198f, 0.095362f, 0.061655f, 0.001270f, 0.064136f, -0.013765f, -0.058947f, -0.096996f, 0.039851f, -0.076208f, -0.021798f, 0.046464f, 0.091712f, 0.005590f, -0.040985f, -0.018881f, 0.047206f, -0.066766f, 0.040147f, 0.064728f, 0.000713f, 0.082971f, -0.062543f, 0.018430f, 0.075098f, 0.031096f, 0.069437f, -0.038461f, 0.001389f, -0.036823f, 0.016067f, 0.019438f, 0.008922f, 0.025304f, 0.035378f, 0.067865f, -0.067208f, 0.078143f, -0.019285f, -0.073821f, 0.071292f, 0.069570f, -0.023710f, 0.030639f, -0.037706f, -0.029381f, -0.001881f, 0.055772f, -0.009788f, 0.031170f, 0.053807f, -0.011825f, -0.011693f, -0.012172f, -0.081520f, -0.065313f, 0.078283f, 0.041061f, -0.076851f, 0.011679f, -0.107734f, -0.007406f, -0.076091f, 0.053918f, 0.026096f, -0.093595f, 0.020894f, 0.089330f, 0.029391f, -0.068549f, 0.048259f, 0.030322f, 0.015480f, 0.054917f, -0.024117f, -0.042996f, -0.073903f, 0.006583f, -0.030750f, -0.064600f, -0.066081f, -0.065083f, 0.009897f, -0.074744f, -0.027972f, 0.046184f, 0.014247f, -0.007074f, 0.091519f, -0.001322f, 0.067368f, 0.032282f, -0.006228f, -0.018806f, 0.091978f, -0.001137f, -0.037584f, 0.013332f, -0.037853f, -0.064799f, -0.062035f, 0.048056f, 0.043068f, -0.023212f, -0.009695f, 0.041005f, -0.105688f, -0.046080f, -0.049581f, 0.003240f, 0.065435f, -0.089683f, 0.080796f, 0.027418f, 0.017581f, 0.086166f, -0.080937f, -0.025783f, -0.058979f, -0.011308f, 0.018954f, 0.055733f, -0.086576f, -0.014705f, 0.072990f, -0.015274f, 0.067648f, -0.073546f, -0.049840f, 0.034866f, 0.014583f, -0.025358f, 0.021057f, 0.065675f, 0.092711f, -0.006884f, 0.041864f, -0.010153f, 0.095744f, 0.006294f, -0.028216f, 0.092630f, -0.087738f, -0.048771f, 0.052052f, 0.000329f, -0.025429f, 0.006700f, -0.009428f, -0.047685f, -0.035787f, -0.020504f, 0.074678f, 0.076708f, -0.071064f, 0.031313f, 0.030552f, 0.034585f, -0.104442f, -0.054217f, 0.059323f, 0.013016f, -0.082375f, 0.021985f, 0.053091f, 0.056391f, 0.063217f, 0.016841f, -0.020442f, -0.061775f, 0.059110f, 0.047535f, 0.069153f, -0.045706f, -0.082837f, 0.055485f, 0.098554f, 0.069443f, 0.005895f, 0.023694f, -0.090213f, -0.027261f, -0.005377f, 0.063181f, 0.001909f, 0.029464f, -0.088817f, 0.104927f, 0.012483f, -0.052850f, -0.018120f, 0.017566f, -0.076908f, -0.053549f, 0.087812f, 0.062063f, -0.057566f, -0.051224f, 0.010761f, -0.054271f, -0.095211f, 0.033655f, -0.073648f, -0.020201f, -0.026831f, -0.083562f, -0.056794f, -0.082946f, 0.105472f, 0.036496f, 0.080309f, 0.027230f, -0.036316f, -0.053196f, -0.013434f, 0.009830f, 0.052417f, -0.003250f, -0.050650f, 0.076991f, -0.080854f, 0.002671f, -0.102911f, -0.010500f, 0.017850f, -0.072348f, -0.005877f, 0.014090f, 0.097863f, -0.014686f, -0.083715f, -0.078431f, -0.053932f, 0.072456f, -0.056280f, 0.031947f, -0.066129f, -0.071713f, 0.040738f, -0.074595f, 0.043354f, -0.028616f, -0.045162f, 0.083433f, 0.030924f, -0.101322f, 0.048215f, -0.060619f, 0.095118f, -0.077403f, 0.028154f, -0.064951f, 0.071949f, -0.048409f, 0.007423f, -0.087127f, -0.000254f, 0.012846f, 0.045865f, 0.024773f, 0.023080f, 0.075926f, -0.022959f, -0.022266f, -0.101597f, 0.008810f, 0.105917f, 0.031234f, 0.080026f, 0.006069f, 0.035131f, -0.049582f, -0.031253f, 0.036883f, -0.009403f, -0.105453f, -0.029361f, 0.018466f, -0.021930f, -0.020828f, 0.074468f, -0.034311f, 0.015966f, 0.081109f, 0.072029f, -0.039810f, -0.074095f, -0.057268f, -0.052189f, -0.082019f, -0.027228f, -0.009367f, 0.035556f, -0.012916f, -0.069373f, 0.024697f, 0.056872f, 0.021853f, 0.058058f, -0.059389f, -0.012396f, -0.007100f, -0.046075f, 0.037732f, -0.056553f, 0.075923f, -0.089822f, -0.025325f, 0.012320f, 0.003038f, 0.023046f, -0.095721f, 0.075407f, -0.070985f, -0.042127f, -0.037565f, -0.105010f, -0.086326f, 0.067355f, 0.055266f, 0.037576f, 0.025671f, -0.092394f, -0.053718f, -0.107002f, -0.072107f, -0.074861f, -0.053903f, -0.072375f, -0.081003f, -0.037158f, 0.068228f, -0.097025f, 0.101358f, 0.040916f, 0.055155f, 0.017756f, 0.064331f, -0.034837f, -0.057887f, 0.041002f, -0.001819f, 0.011523f, -0.046847f, -0.060863f, -0.003463f, -0.010197f, 0.075279f, 0.007470f, -0.004589f, 0.073771f, -0.088916f, -0.033183f, -0.016000f, 0.079179f, 0.068838f, -0.052403f, 0.054543f, -0.099742f, 0.010409f, 0.016251f, -0.043857f, -0.096050f, -0.058057f, -0.003857f, -0.026666f, -0.020718f, -0.062525f, -0.076707f, 0.061508f, -0.081898f, -0.042791f, 0.016773f, 0.082960f, -0.047758f, 0.018500f, -0.000361f, -0.076024f, -0.019682f, -0.077380f, 0.104343f, 0.064263f, -0.017943f, -0.036702f, -0.026059f, -0.030009f, -0.018700f, 0.072401f, -0.003045f, 0.038309f, -0.082135f, -0.000869f, -0.003456f, 0.013184f, 0.021240f, 0.084217f, -0.037578f, -0.038983f, -0.071872f, 0.010568f, 0.099051f, -0.028323f, 0.086307f, 0.032347f, -0.059394f, 0.016818f, 0.015845f, 0.043592f, 0.025490f, -0.069363f, -0.050974f, -0.034612f, 0.034003f, -0.003807f, 0.022041f, 0.073281f, -0.003256f, -0.010958f, -0.029705f, 0.008979f, -0.050248f, 0.049073f, 0.078417f, 0.051529f, 0.055900f, 0.078325f, -0.072094f, 0.106716f, 0.047090f, -0.031693f, 0.093214f, 0.013348f, 0.094980f, 0.030272f, -0.027648f, 0.057930f, 0.041260f, -0.052944f, 0.089723f, -0.068245f, -0.012057f, 0.016455f, 0.001189f, 0.019860f, 0.082786f, -0.096548f, 0.040502f, 0.046960f, -0.038647f, -0.055896f, -0.018581f, -0.006519f, -0.015373f, -0.050596f, 0.015212f, 0.069909f, 0.064859f, 0.031382f, -0.027237f, 0.057979f, -0.031434f, -0.037244f, -0.084249f, 0.106379f, -0.096365f, 0.014670f, -0.056923f, 0.057958f, -0.053061f, 0.030035f, -0.067758f, 0.074736f, 0.037017f, -0.006143f, 0.084456f, 0.016277f, -0.010494f, -0.054765f, 0.056449f, 0.005082f, -0.043069f, -0.038265f, -0.043599f, -0.013084f, -0.086286f, -0.030554f, 0.034373f, 0.034865f, 0.069369f, 0.031537f, -0.104828f, 0.000316f, -0.025814f, -0.031443f, 0.084810f, 0.035843f, -0.031198f, 0.023021f, -0.078391f, 0.043762f, -0.038397f, -0.046703f, -0.073921f, -0.100910f, 0.058610f, 0.055881f, -0.005494f, -0.033049f, -0.031166f, 0.068335f, -0.078031f, -0.090824f, -0.064111f, -0.007476f, -0.105828f, -0.091785f, 0.028529f, 0.003934f, 0.102548f, 0.085035f, -0.029441f, -0.010569f, 0.094088f, 0.025331f, -0.035817f, 0.065352f, 0.093873f, 0.017259f, -0.065707f, 0.073551f, -0.011575f, 0.027804f, 0.006174f, 0.072088f, -0.073253f, -0.050819f, -0.068133f, -0.067832f, -0.043943f, -0.082709f, 0.032221f, -0.046498f, -0.065893f, -0.067464f, -0.008561f, 0.103382f, -0.015772f, -0.022452f, -0.097900f, -0.047040f, -0.066701f, 0.063080f, -0.089427f, -0.071187f, -0.055240f, -0.051878f, 0.067879f, 0.066848f, 0.011399f, -0.024539f, -0.017442f, 0.005607f, 0.047017f, -0.021797f, -0.013819f, 0.090649f, 0.016124f, -0.004351f, -0.078604f, -0.051542f, -0.059745f, 0.038068f, -0.062423f, -0.078932f, -0.013645f, 0.057655f, 0.030867f, 0.063070f, 0.044420f, 0.014539f, 0.012207f, -0.066090f, -0.001582f, 0.019209f, -0.078911f, 0.008950f, -0.092186f, 0.022990f, -0.051682f, -0.090232f, -0.060760f, 0.066576f, 0.033210f, -0.057147f, -0.089156f, 0.020321f, -0.072015f, 0.063520f, -0.013153f, 0.055437f, -0.021372f, 0.030495f, 0.040903f, 0.027747f, 0.057159f, 0.011585f, 0.008695f, -0.022486f, 0.068282f, -0.004463f, -0.031664f, 0.004127f, -0.051150f, -0.050568f, -0.040204f, -0.006288f, 0.034050f, -0.027412f, -0.080210f, 0.021149f, 0.086053f, -0.032472f, 0.012997f, -0.050159f, 0.056263f, -0.092415f, -0.065641f, 0.108167f, 0.031851f, -0.007109f, 0.072184f, 0.101549f, -0.047009f, 0.046449f, -0.025666f, 0.030125f, 0.026489f, 0.082721f, -0.085454f, -0.111893f, 0.052214f, 0.005324f, 0.029902f, 0.063853f, -0.018391f, -0.022548f, 0.069173f, -0.014364f, 0.014216f, 0.075972f, -0.052509f, -0.110442f, -0.063551f, 0.073062f, -0.000018f, 0.103357f, -0.006724f, -0.036723f, 0.053628f, 0.016913f, 0.069056f, 0.016490f, -0.012425f, -0.053962f, -0.081339f, -0.027223f, -0.092975f, -0.004832f, -0.041428f, 0.050592f, -0.041207f, -0.095168f, 0.076999f, -0.074844f, 0.059779f, 0.072932f, -0.080755f, 0.021703f, -0.021137f, 0.069492f, 0.030835f, -0.059413f, -0.108632f, -0.016436f, 0.062359f, 0.075043f, -0.083988f, 0.077670f, -0.072998f, -0.062684f, 0.091355f, -0.026467f, -0.092480f, 0.012109f, -0.097354f, -0.101231f, 0.017249f, -0.044974f, 0.019149f, -0.023728f, -0.081778f, 0.088555f, -0.054980f, -0.085334f, -0.051671f, -0.060289f, -0.049308f, -0.042995f, 0.050187f, -0.071419f, -0.013247f, -0.072047f, 0.108120f, -0.056036f, 0.008577f, 0.005750f, 0.044442f, -0.037785f, 0.058710f, -0.108970f, 0.070539f, -0.065571f, 0.000104f, -0.074651f, -0.016933f, 0.014206f, -0.058399f, -0.024642f, 0.026464f, 0.053414f, 0.025931f, -0.010753f, -0.083583f, -0.060753f, 0.074856f, -0.104453f, 0.007987f, 0.064061f, -0.046383f, 0.009138f, -0.014540f, -0.065001f, 0.059226f, 0.094871f, 0.034994f, -0.093129f, 0.013032f, -0.062588f, -0.043934f, -0.050091f, 0.010697f, 0.006177f, -0.041925f, 0.071708f, -0.050591f, 0.060888f, -0.108681f, -0.047531f, 0.048982f, -0.004409f, 0.033228f, -0.002141f, -0.013683f, -0.059140f, -0.050110f, 0.094043f, 0.005420f, 0.009675f, 0.025356f, -0.088636f, 0.012091f, 0.069593f, -0.002069f, -0.026780f, -0.023776f, 0.061836f, 0.012172f, 0.045223f, 0.028752f, -0.073791f, 0.107406f, 0.024109f, 0.030467f, -0.102050f, 0.095511f, -0.014732f, 0.074461f, -0.002659f, 0.012536f, 0.083917f, -0.020973f, -0.050996f, -0.015238f, -0.032103f, 0.048866f, 0.082166f, -0.103763f, -0.006336f, -0.040861f, -0.050475f, 0.016470f, 0.055923f, -0.001683f, -0.070246f, 0.066870f, 0.001885f, 0.056324f, 0.081465f, -0.014953f, -0.021514f, -0.051961f, 0.046318f, 0.109433f, -0.058299f, 0.010446f, 0.000907f, 0.081915f, -0.062613f, 0.088671f, 0.015464f, 0.042772f, 0.038644f, -0.050878f, 0.099462f, 0.104529f, 0.060736f, 0.071831f, -0.048841f, 0.054783f, 0.061213f, -0.055248f, -0.079026f, 0.054150f, 0.006973f, -0.083840f, -0.004994f, -0.050076f, 0.036796f, 0.000991f, 0.037987f, 0.049039f, 0.039818f, 0.036970f, 0.064473f, -0.065344f, 0.016624f, 0.036821f, -0.037411f, -0.072255f, 0.044967f, 0.057049f, 0.061516f, -0.003414f, 0.025759f, -0.067418f, -0.046533f, 0.031021f, -0.058621f, 0.085448f, -0.067399f, 0.065844f, -0.024578f, 0.058640f, -0.032059f, 0.059280f, 0.089310f, 0.029607f, -0.074212f, 0.080197f, 0.015887f, -0.062501f, -0.006531f, 0.049178f, 0.068584f, 0.067771f, -0.083056f, 0.057614f, 0.014096f, -0.028425f, 0.002670f, 0.075438f, 0.084067f, 0.031277f, -0.090820f, 0.051119f, -0.074506f, -0.031460f, -0.018332f, 0.007275f, -0.036265f, -0.021994f, 0.065529f, -0.054809f, 0.055715f, -0.102361f, -0.070362f, 0.074492f, -0.018189f, -0.098142f, 0.006498f, -0.017450f, -0.065649f, -0.014538f, 0.027460f, 0.039053f, 0.088821f, 0.011252f, -0.067755f, -0.085645f, -0.009722f, -0.048354f, 0.065317f, -0.066324f, -0.010367f, 0.006199f, -0.044319f, 0.040554f, 0.007358f, 0.097194f, 0.081343f, 0.012091f, -0.024430f, 0.030367f, 0.008603f, -0.053790f, -0.054805f, -0.010824f, -0.043958f, -0.011525f, -0.082915f, 0.045491f, -0.069096f, 0.033608f, -0.075086f, -0.082016f, 0.031797f, 0.080712f, -0.009589f, 0.059830f, -0.095622f, 0.004109f, 0.050226f, -0.026902f, -0.055706f, -0.076687f, -0.034939f, 0.047465f, 0.108523f, -0.023497f, -0.026738f, -0.043075f, -0.091286f, -0.005121f, 0.036529f, 0.023219f, -0.081316f, 0.040211f, 0.044080f, 0.014240f, 0.101797f, -0.054589f, 0.074294f, -0.058167f, -0.049636f, -0.044403f, 0.064885f, 0.042604f, -0.016944f, -0.033787f, -0.097541f, 0.025629f, 0.104261f, 0.068548f, -0.068176f, -0.030766f, -0.028306f, -0.004296f, -0.061061f, 0.051156f, 0.068981f, 0.038090f, -0.091600f, 0.067278f, -0.020055f, -0.092076f, 0.017681f, 0.049287f, 0.049068f, -0.027161f, 0.064238f, -0.018793f, 0.022340f, 0.066351f, 0.033865f, -0.089011f, 0.037335f, 0.096069f, 0.064103f, -0.008147f, 0.054373f, -0.076880f, -0.035469f, 0.061824f, -0.080764f, -0.001869f, 0.053779f, 0.007271f, -0.097084f, -0.016726f, 0.035933f, -0.036814f, 0.090061f, 0.085855f, -0.080126f, -0.064956f, -0.030578f, 0.003974f, -0.077844f, -0.045663f, 0.069420f, 0.028213f, 0.004570f, 0.030768f, -0.111725f, -0.064859f, 0.029103f, 0.034443f, 0.083394f, -0.000787f, 0.016849f, -0.003490f, 0.070704f, 0.059552f, -0.009979f, -0.010179f, -0.102347f, 0.040722f, 0.048950f, -0.025010f, 0.017274f, 0.061069f, 0.082841f, -0.059721f, 0.054260f, 0.008618f, -0.093176f, -0.040001f, 0.026029f, 0.081985f, -0.066533f, 0.019157f, 0.035516f, -0.031796f, 0.060643f, -0.064159f, -0.064117f, -0.086257f, 0.012164f, -0.035219f, -0.088264f, 0.063323f, -0.049746f, 0.001421f, -0.033168f, 0.024176f, 0.013789f, 0.032501f, -0.052631f, -0.103153f, 0.066628f, 0.080690f, 0.087025f, -0.063125f, 0.072408f, -0.002242f, 0.020697f, 0.012634f, 0.024790f, 0.023931f, 0.014865f, 0.022072f, -0.058315f, 0.063568f, 0.059857f, 0.080129f, 0.052017f, 0.007910f, 0.079634f, 0.021867f, -0.049790f, -0.074203f, 0.005204f, 0.037532f, 0.077658f, -0.026705f, 0.083410f, 0.029348f, 0.057015f, 0.072795f, 0.092570f, -0.051243f, -0.014597f, 0.091161f, 0.048487f, -0.029058f, 0.008099f, 0.046029f, -0.097031f, -0.017582f, -0.070118f, 0.015517f, 0.069859f, -0.079435f, 0.080537f, 0.001760f, 0.037742f, -0.038567f, 0.005658f, 0.075931f, 0.032169f, -0.081854f, -0.037930f, -0.036922f, 0.106470f, 0.041334f, 0.016801f, -0.100680f, 0.071550f, -0.075460f, -0.060701f, 0.059672f, -0.106542f, -0.081642f, 0.098461f, -0.049909f, 0.069879f, 0.048320f, -0.088765f, 0.057553f, -0.043058f, 0.021558f, -0.010841f, -0.004491f, 0.074890f, -0.042605f, -0.027086f, -0.041160f, -0.011971f, 0.029355f, 0.069442f, 0.090706f, -0.070356f, 0.021423f, 0.023158f, 0.024533f, 0.056119f, 0.097143f, 0.037792f, -0.078573f, 0.081413f, 0.060832f, -0.041586f, -0.087291f, 0.073209f, 0.106842f, -0.088834f, 0.044924f, -0.108604f, -0.077579f, 0.046796f, 0.055928f, -0.016134f, -0.011806f, 0.057008f, 0.055073f, -0.031853f, 0.055436f, -0.067469f, -0.008048f, 0.058389f, 0.033885f, -0.006804f, 0.044668f, -0.072733f, -0.057024f, -0.066553f, -0.090980f, -0.075173f, 0.087804f, 0.081159f, 0.002316f, -0.011937f, 0.002178f, 0.096407f, 0.076106f, -0.047095f, -0.060436f, -0.103192f, -0.009967f, -0.032896f, -0.061280f, 0.077074f, 0.064914f, 0.058503f, -0.002211f, 0.061329f, 0.100834f, 0.085166f, -0.038037f, 0.059525f, -0.024697f, -0.088449f, 0.033981f, 0.045618f, 0.085089f, -0.018535f, -0.044091f, -0.093130f, -0.024306f, 0.029568f, -0.018202f, -0.059661f, -0.008648f, 0.090450f, -0.016663f, 0.001703f, 0.008594f, -0.037217f, -0.101791f, -0.037478f, -0.013245f, 0.032774f, -0.020480f, -0.017008f, 0.062413f, 0.024230f, 0.093581f, -0.108397f, 0.044546f, -0.095880f, -0.035433f, 0.090901f, 0.054425f, 0.028332f, -0.007797f, -0.077260f, -0.033702f, -0.017000f, -0.003913f, 0.003732f, -0.080634f, 0.023083f, -0.022901f, -0.085849f, 0.073910f, -0.047464f, -0.060452f, 0.033383f, -0.040966f, 0.009049f, -0.110820f, -0.015863f, -0.103351f, -0.042909f, -0.041171f, 0.108264f, -0.038023f, 0.060944f, -0.024707f, 0.088573f, 0.021012f, -0.104090f, -0.067469f, -0.080035f, -0.088352f, -0.043290f, 0.045158f, 0.041228f, -0.058221f, -0.023957f, 0.062043f, -0.096487f, 0.001240f, -0.090214f, 0.088012f, 0.003015f, 0.096074f, -0.062634f, 0.109681f, -0.072307f, -0.073181f, 0.070516f, 0.043594f, -0.042886f, -0.035962f, -0.021987f, 0.077816f, 0.039469f, 0.068475f, 0.059765f, -0.063126f, 0.002731f, 0.107077f, -0.061796f, -0.017701f, 0.037209f, 0.103765f, -0.089609f, -0.029196f, 0.057474f, 0.003502f, 0.070769f, -0.067287f, 0.022705f, 0.031110f, 0.078295f, 0.057828f, -0.022843f, 0.003460f, -0.083464f, 0.023452f, -0.085175f, 0.016397f, -0.008772f, 0.092981f, -0.048243f, -0.022584f, 0.085953f, 0.020409f, 0.047746f, 0.001456f, 0.049608f, 0.057595f, -0.075110f, 0.061019f, -0.075012f, 0.053723f, 0.024203f, -0.033441f, 0.102380f, 0.081281f, -0.032088f, -0.043574f, -0.012269f, -0.040865f, -0.062015f, 0.089673f, 0.076378f, 0.083193f, -0.019565f, 0.041955f, -0.034262f, 0.059860f, 0.076626f, -0.006186f, 0.008861f, 0.020117f, -0.067377f, -0.063814f, -0.034982f, 0.067168f, 0.026844f, 0.061057f, 0.003773f, -0.074406f, 0.004912f, -0.104814f, -0.001411f, -0.057776f, 0.057827f, -0.070795f, 0.010762f, -0.020551f, 0.059025f, 0.024951f, 0.009931f, 0.003111f, -0.064022f, -0.004588f, -0.047986f, -0.058791f, 0.063933f, -0.032003f, -0.051869f, -0.086253f, -0.097241f, -0.058249f, -0.025521f, 0.057584f, -0.041937f, 0.075408f, 0.000089f, -0.042162f, -0.067062f, -0.097717f, -0.011891f, -0.016686f, -0.038696f, 0.072828f, -0.068391f, -0.067821f, -0.063912f, 0.006819f, 0.028986f, 0.065317f, -0.060035f, -0.082338f, -0.013036f, -0.034433f, 0.085740f, -0.096905f, -0.046025f, 0.031906f, -0.015673f, 0.028397f, 0.070475f, 0.024148f, 0.019295f, 0.049505f, -0.099706f, -0.094491f, 0.036302f, -0.039077f, 0.112837f, 0.046158f, 0.092877f, -0.058657f, 0.010611f, -0.085200f, 0.029613f, -0.091801f, 0.023512f, -0.050738f, 0.027299f, -0.041956f, -0.099416f, 0.047820f, 0.000272f, 0.056490f, -0.099630f, 0.017054f, -0.074720f, -0.058492f, 0.055836f, -0.067688f, -0.071727f, -0.081538f, -0.058334f, 0.069148f, 0.001129f, 0.045398f, -0.059881f, 0.011043f, 0.075789f, -0.004109f, 0.087505f, -0.036537f, 0.104278f, -0.081445f, 0.045710f, -0.067546f, -0.056616f, 0.000371f, -0.043928f, -0.044678f, -0.000538f, 0.085879f, 0.037363f, -0.053780f, 0.090903f, -0.051878f, 0.039154f, -0.053930f, 0.039923f, 0.016187f, -0.001041f, -0.016118f, -0.035881f, 0.036488f, 0.077858f, -0.077214f, 0.058860f, 0.086848f, 0.029032f, -0.057402f, -0.022750f, 0.061804f, -0.042642f, -0.103928f, -0.061560f, -0.038228f, -0.032809f, -0.018489f, 0.047317f, -0.041744f, -0.000430f, 0.055081f, 0.042712f, -0.048908f, -0.041974f, -0.079943f, -0.071392f, -0.004432f, -0.036033f, 0.012517f, 0.031667f, 0.030268f, 0.102949f, -0.059038f, 0.059972f, -0.104225f, -0.079034f, -0.089602f, 0.038246f, -0.006436f, -0.075595f, -0.063156f, 0.023466f, 0.091339f, -0.045582f, -0.029282f, -0.087852f, 0.018340f, 0.097132f, -0.067990f, 0.005586f, 0.066289f, 0.027711f, 0.008995f, 0.037971f, 0.043876f, 0.057225f, 0.012212f, -0.034111f, -0.042618f, 0.096839f, -0.094574f, -0.028496f, 0.041214f, 0.021927f, -0.004876f, -0.088337f, -0.084468f, 0.031387f, -0.013599f, -0.034207f, -0.038037f, -0.000447f, 0.049168f, 0.003253f, -0.067698f, -0.079612f, -0.073657f, -0.098882f, 0.048700f, 0.081638f, -0.017005f, 0.090232f, 0.055417f, 0.082562f, -0.025051f, 0.079194f, 0.049423f, -0.012891f, 0.081268f, -0.105707f, 0.027704f, 0.018710f, -0.096868f, 0.058384f, -0.050250f, -0.043106f, 0.012163f, 0.075514f, 0.012966f, 0.003818f, -0.014934f, -0.053960f, -0.014258f, -0.040305f, -0.012782f, -0.027868f, 0.084332f, 0.067171f, 0.050693f, 0.008394f, 0.040914f, -0.021203f, -0.006061f, 0.075552f, -0.014564f, -0.052681f, 0.000945f, 0.017180f, -0.068951f, -0.088653f, -0.051470f, 0.064761f, 0.024109f, -0.069030f, 0.024991f, 0.022367f, -0.002458f, 0.064423f, -0.110049f, -0.053254f, 0.107076f, 0.008531f, -0.090428f, -0.038454f, -0.083013f, 0.000664f, 0.081291f, 0.032959f, 0.008025f, -0.017467f, -0.067632f, 0.011602f, 0.081814f, -0.109203f, 0.020357f, -0.029875f, 0.021804f, 0.055781f, -0.004634f, -0.045566f, -0.021514f, -0.076622f, -0.069314f, -0.014064f, 0.036931f, -0.059270f, 0.092196f, 0.049176f, 0.047262f, 0.040679f, -0.112925f, 0.067593f, 0.069488f, -0.082024f, 0.018653f, 0.017916f, -0.070835f, 0.053455f, 0.012192f, -0.054961f, 0.082429f, -0.038987f, 0.053254f, 0.005500f, 0.043942f, -0.083619f, 0.078594f, -0.039502f, -0.065953f, 0.001992f, -0.018710f, 0.000069f, -0.100101f, -0.040373f, 0.042521f, 0.075043f, -0.061058f, 0.048591f, -0.099396f, -0.102665f, -0.033132f, -0.083787f, -0.073164f, 0.038854f, 0.084965f, 0.059162f, -0.017763f, 0.086471f, 0.079370f, 0.009674f, -0.015038f, -0.079835f, -0.055030f, -0.097425f, -0.002429f, 0.050051f, 0.026732f, 0.060476f, 0.038774f, 0.052006f, -0.057280f, -0.046943f, 0.076158f, -0.042802f, -0.046455f, 0.064844f, 0.078306f, 0.035650f, -0.036923f, 0.038160f, -0.084962f, -0.054589f, -0.016383f, 0.081804f, -0.042801f, -0.103600f, -0.040265f, -0.037930f, -0.099872f, -0.008692f, -0.041342f, 0.036008f, -0.078812f, -0.005664f, -0.026979f, 0.044802f, 0.093264f, -0.083828f, 0.061437f, 0.035256f, -0.108866f, 0.062311f, -0.005738f, 0.045068f, -0.014819f, 0.042315f, -0.060132f, -0.047686f, -0.015543f, 0.010941f, 0.057064f, 0.047810f, 0.053775f, -0.012246f, 0.084381f, -0.072540f, -0.055052f, 0.024332f, -0.061754f, -0.072091f, 0.064886f, -0.087939f, 0.082137f, 0.083971f, 0.085027f, 0.008591f, -0.037341f, 0.045295f, -0.078968f, 0.008294f, -0.016726f, 0.062061f, -0.092875f, -0.024437f, -0.020225f, -0.055165f, -0.015177f, 0.070561f, -0.005619f, -0.032873f, 0.014348f, -0.095454f, -0.025842f, 0.069979f, 0.012637f, -0.105293f, 0.007536f, -0.074161f, 0.109154f, 0.074093f, -0.078876f, -0.030817f, 0.010332f, -0.074241f, 0.029672f, 0.073433f, -0.082011f, -0.087639f, -0.025087f, 0.077819f, -0.032462f, -0.058260f, -0.073992f, 0.089149f, 0.062651f, 0.014696f, 0.021243f, 0.065563f, -0.029558f, 0.014124f, 0.049759f, -0.000235f, -0.077729f, 0.080050f, 0.050486f, -0.016690f, 0.028519f, 0.041786f, -0.014730f, 0.058112f, 0.035857f, -0.000591f, -0.044673f, 0.027980f, 0.003249f, -0.001097f, -0.071929f, 0.039243f, -0.008435f, 0.001948f, 0.047832f, -0.043110f, -0.060855f, 0.037425f, -0.017326f, -0.052020f, -0.041090f, -0.018373f, 0.052909f, 0.048929f, 0.061927f, 0.084534f, -0.084397f, 0.083938f, -0.002874f, -0.049829f, 0.103434f, 0.050434f, 0.094941f, 0.017089f, 0.059293f, 0.009498f, -0.008845f, 0.093496f, 0.034431f, 0.024722f, -0.024973f, -0.082003f, -0.086547f, -0.051376f, 0.028465f, -0.060915f, -0.080340f, -0.065147f, 0.085906f, -0.043730f, -0.057892f, -0.026424f, 0.015466f, 0.034921f, 0.070827f, 0.026645f, 0.023771f, 0.052614f, 0.021415f, 0.062991f, 0.003131f, 0.057116f, 0.068364f, 0.032781f, -0.035154f, -0.057206f, 0.014091f, 0.010509f, -0.100849f, 0.062052f, -0.039049f, -0.082219f, -0.053487f, 0.043845f, 0.017386f, 0.071156f, -0.087096f, 0.070535f, 0.040310f, -0.072079f, 0.038705f, 0.062927f, -0.072880f, -0.057862f, 0.034786f, -0.035374f, 0.064730f, 0.023863f, 0.064919f, -0.090279f, 0.054399f, -0.022304f, -0.009966f, -0.032861f, -0.060350f, -0.056738f, -0.015694f, -0.036123f, -0.051740f, 0.107052f, -0.011412f, 0.017395f, -0.041011f, 0.026110f, -0.013524f, 0.033523f, 0.030991f, 0.022585f, 0.058139f, -0.050943f, -0.073592f, -0.015250f, 0.014156f, -0.068295f, 0.052954f, 0.056556f, 0.063291f, 0.054338f, -0.089568f, 0.018231f, -0.014666f, -0.037629f, 0.018178f, -0.026556f, 0.022016f, 0.020576f, 0.020717f, -0.080016f, -0.038600f, 0.057437f, -0.026049f, 0.006428f, -0.026519f, -0.070275f, -0.071562f, 0.041924f, 0.014477f, 0.079337f, -0.029030f, 0.039748f, 0.006859f, -0.021659f, 0.085509f, -0.021671f, 0.088805f, 0.016364f, -0.085461f, -0.070918f, 0.094530f, -0.022873f, 0.000907f, -0.000548f, -0.064448f, -0.082529f, -0.055844f, 0.035893f, 0.018788f, -0.044099f, -0.074216f, -0.019696f, -0.034294f, 0.037204f, 0.042449f, -0.073366f, -0.037481f, 0.044397f, 0.022471f, 0.003514f, -0.063128f, -0.054724f, -0.101549f, 0.057534f, 0.069363f, 0.065892f, -0.063570f, 0.062831f, 0.067445f, 0.104880f, 0.054195f, -0.035287f, -0.043418f, 0.029414f, 0.048337f, 0.043236f, -0.023148f, -0.009811f, -0.035246f, 0.003931f, 0.039862f, 0.024139f, -0.023620f, -0.010069f, 0.058561f, -0.061001f, -0.060714f, 0.008216f, -0.018350f, -0.085033f, 0.032125f, -0.007163f, 0.008197f, 0.079563f, -0.018422f, -0.091310f, -0.073103f, -0.022192f, 0.057177f, 0.025369f, 0.080148f, -0.031541f, -0.079840f, -0.052371f, 0.102618f, 0.032184f, 0.081309f, 0.007780f, -0.038529f, 0.097871f, -0.049105f, -0.031106f, -0.029004f, 0.037860f, -0.005248f, 0.076266f, 0.102276f, -0.065753f, 0.094520f, 0.065731f, 0.024410f, -0.022512f, 0.022869f, 0.072315f, 0.053136f, 0.042896f, -0.046755f, -0.073607f, 0.000778f, -0.048105f, 0.047099f, -0.071180f, 0.003881f, 0.056813f, -0.081372f, 0.031377f, -0.062401f, -0.054468f, -0.049371f, -0.102827f, 0.037971f, -0.021134f, 0.085119f, -0.068461f, 0.065712f, -0.002529f, -0.084676f, 0.063210f, -0.083081f, 0.013749f, -0.062524f, -0.024934f, 0.006264f, 0.095582f, -0.026839f, -0.017543f, -0.044448f, -0.017266f, -0.059986f, 0.011683f, 0.001156f, 0.030608f, -0.041806f, -0.029615f, -0.096834f, -0.073520f, -0.033746f, -0.014587f, 0.045212f, 0.038446f, -0.005845f, 0.065980f, 0.040186f, 0.011190f, -0.060775f, -0.056822f, -0.007531f, 0.070754f, -0.034364f, 0.096916f, 0.040708f, -0.021606f, 0.020158f, -0.007271f, 0.082897f, -0.105207f, -0.069147f, -0.066070f, 0.046182f, -0.048190f, 0.034905f, 0.002855f, 0.072067f, 0.114530f, -0.060358f, -0.052029f, 0.044286f, -0.105221f, 0.061477f, -0.010253f, -0.037115f, 0.023074f, -0.043703f, -0.053316f, -0.055523f, 0.050698f, 0.050315f, 0.032641f, -0.034969f, 0.041967f, -0.051402f, 0.089126f, -0.019605f, -0.005196f, -0.054059f, 0.028264f, 0.095003f, 0.005570f, 0.020041f, -0.047635f, -0.044469f, -0.065238f, -0.010747f, -0.055675f, 0.035752f, -0.023466f, 0.041018f, -0.096444f, 0.077144f, -0.029984f, -0.061681f, 0.013428f, 0.084982f, 0.033771f, -0.047678f, -0.025199f, 0.034163f, -0.089779f, -0.026314f, 0.011090f, 0.061577f, -0.045249f, 0.071801f, 0.069548f, -0.107329f, -0.073240f, 0.028652f, -0.019794f, -0.077474f, -0.007717f, 0.016548f, 0.087522f, -0.044539f, -0.081019f, -0.036899f, 0.016159f, 0.039413f, -0.042963f, -0.036659f, -0.112600f, -0.075892f, -0.068772f, -0.050084f, -0.023545f, -0.079530f, -0.024575f, -0.051668f, 0.028150f, -0.018729f, 0.012878f, 0.057138f, -0.095796f, -0.036196f, 0.078595f, -0.107756f, -0.022907f, -0.000190f, 0.054273f, -0.047060f, 0.064614f, -0.114089f, 0.006407f, -0.019044f, 0.068842f, -0.025048f, -0.085112f, 0.054711f, -0.109767f, -0.048117f, 0.015226f, 0.033353f, -0.020815f, -0.093457f, 0.073781f, -0.091247f, 0.059105f, -0.070213f, -0.087653f, -0.063251f, -0.079384f, 0.062543f, 0.069917f, -0.060289f, -0.087286f, 0.025162f, 0.048744f, 0.020536f, -0.104720f, 0.063039f, 0.054720f, 0.053406f, -0.047828f, -0.100821f, 0.099686f, -0.016578f, 0.055916f, -0.095142f, -0.015817f, -0.010935f, -0.085594f, -0.035400f, 0.076632f, 0.028770f, 0.062917f, 0.092118f, -0.037953f, 0.056824f, -0.083592f, 0.004856f, 0.024815f, -0.025502f, -0.066150f, -0.000688f, 0.078582f, 0.033307f, -0.006214f, 0.079630f, 0.053939f, -0.099655f, 0.041980f, 0.035439f, -0.102868f, 0.070086f, -0.021313f, -0.058549f, 0.003638f, 0.080174f, -0.044572f, 0.094792f, -0.071677f, -0.067081f, 0.020546f, -0.008474f, 0.040197f, -0.078453f, -0.063075f, 0.031509f, -0.014084f, -0.034835f, 0.049794f, 0.065190f, 0.035898f, 0.038428f, 0.103016f, -0.097456f, -0.082069f, 0.001456f, -0.058032f, -0.054660f, 0.103520f, -0.104422f, -0.084498f, 0.092771f, -0.051374f, -0.081368f, 0.009006f, 0.080581f, -0.054899f, 0.068081f, 0.083781f, -0.056165f, -0.000286f, 0.070140f, -0.082344f, -0.077126f, -0.042541f, -0.045255f, -0.046421f, -0.073448f, 0.027346f, -0.066327f, 0.005170f, -0.091388f, -0.017792f, -0.032826f, 0.065711f, 0.041490f, 0.083313f, -0.004592f, -0.053339f, -0.000766f, 0.020165f, 0.023513f, 0.092696f, 0.008992f, -0.049230f, 0.091777f, -0.056732f, -0.006987f, 0.063650f, 0.033578f, 0.000633f, 0.025964f, -0.019594f, -0.033659f, 0.037603f, 0.058540f, 0.068392f, 0.082609f, 0.076977f, -0.075894f, 0.090060f, -0.062757f, -0.068383f, 0.032509f, 0.028963f, 0.075445f, 0.066100f, -0.017548f, 0.009762f, 0.021013f, 0.066862f, 0.027289f, -0.033802f, 0.050396f, -0.036352f, -0.042104f, -0.096468f, 0.062716f, -0.102566f, -0.025962f, 0.102605f, 0.004964f, -0.063162f, 0.108685f, 0.060615f, -0.094794f, -0.046603f, 0.033212f, -0.074364f, 0.023022f, -0.081188f, 0.019368f, 0.016096f, 0.091753f, -0.060270f, 0.008617f, -0.042087f, 0.034865f, -0.045316f, 0.087678f, -0.027067f, -0.010088f, 0.040998f, 0.066004f, -0.015625f, 0.041810f, -0.084304f, -0.042000f, 0.028942f, 0.077234f, -0.064049f, -0.088181f, 0.101148f, -0.063491f, -0.080368f, 0.000492f, -0.054971f, -0.025334f, 0.008046f, -0.044775f, 0.112168f, -0.066834f, 0.086588f, 0.056840f, -0.001774f, 0.101280f, -0.055909f, -0.073388f, -0.001096f, -0.092769f, -0.016042f, 0.070518f, -0.006326f, -0.053129f, -0.059914f, 0.091393f, 0.041375f, -0.059542f, -0.019702f, 0.033496f, 0.014162f, 0.066645f, -0.085699f, -0.059670f, 0.015641f, -0.004812f, -0.065288f, -0.080440f, 0.032416f, -0.004987f, 0.015299f, 0.056429f, 0.017262f, -0.044443f, 0.022416f, -0.053647f, -0.048241f, 0.030503f, -0.094112f, -0.107811f, 0.093604f, 0.078270f, 0.069224f, -0.041369f, 0.061184f, -0.020833f, -0.080985f, 0.045792f, 0.058727f, 0.032046f, 0.089083f, 0.088939f, -0.077768f, 0.044467f, 0.016365f, 0.036629f, 0.109374f, 0.080695f, -0.017487f, 0.099348f, 0.084218f, 0.053125f, 0.085421f, -0.017707f, 0.048482f, -0.086342f, -0.003092f, 0.032708f, -0.006393f, 0.074848f, -0.015455f, -0.034970f, -0.002139f, 0.092821f, 0.046455f, 0.083323f, -0.024197f, 0.040348f, 0.009786f, -0.065449f, 0.057815f, -0.099848f, 0.024759f, -0.055288f, -0.045842f, 0.100632f, -0.005401f, 0.012674f, 0.015135f, -0.016302f, 0.056688f, -0.105751f, 0.046956f, -0.046657f, 0.065201f, -0.060807f, -0.073330f, -0.076447f, 0.020366f, -0.037592f, 0.034097f, -0.087101f, -0.037743f, 0.047022f, -0.080771f, 0.043272f, -0.090753f, 0.067780f, 0.057286f, -0.057793f, -0.008527f, 0.008891f, -0.021152f, -0.040659f, -0.037863f, 0.028823f, -0.070871f, -0.038759f, -0.077331f, -0.059942f, -0.102038f, 0.033164f, -0.024731f, -0.034537f, -0.011701f, -0.060025f, -0.014810f, 0.029802f, -0.070683f, 0.009753f, 0.001688f, -0.075000f, -0.041821f, 0.006179f, -0.005928f, 0.044745f, -0.057669f, -0.022944f, 0.076067f, -0.065788f, 0.067127f, -0.010940f, 0.011144f, 0.040397f, -0.003678f, 0.078135f, -0.046905f, -0.083868f, -0.059108f, 0.099871f, -0.097096f, 0.017728f, 0.072910f, 0.057734f, 0.081022f, 0.109144f, -0.003539f, -0.061305f, 0.009600f, 0.050047f, -0.020062f, -0.029170f, 0.046773f, 0.049781f, 0.020457f, 0.020133f, 0.013789f, 0.057735f, 0.070701f, -0.084288f, 0.104939f, -0.025817f, -0.035138f, -0.022611f, 0.052383f, 0.032588f, -0.076943f, -0.029249f, -0.111848f, 0.065698f, -0.059881f, -0.086954f, 0.041537f, -0.071478f, 0.018378f, -0.049855f, 0.065156f, 0.088718f, -0.077660f, 0.080631f, -0.016920f, -0.103133f, 0.019742f, -0.017520f, 0.091481f, -0.047316f, 0.060507f, -0.067221f, -0.035288f, 0.013742f, -0.075670f, -0.054254f, -0.060788f, 0.051946f, 0.095757f, -0.067713f, -0.003345f, -0.058335f, -0.077126f, -0.088938f, -0.026232f, -0.003421f, 0.045285f, -0.010350f, -0.041167f, -0.093497f, 0.013169f, -0.067638f, -0.012027f, -0.110921f, -0.065913f, 0.017647f, -0.085294f, 0.027267f, 0.071707f, 0.063933f, -0.048867f, 0.011987f, 0.070912f, 0.045038f, 0.067216f, -0.032865f, 0.017974f, 0.064685f, -0.023979f, 0.045715f, -0.003037f, 0.027594f, 0.022162f, -0.023238f, 0.008374f, 0.007535f, 0.063481f, 0.027804f, 0.026079f, 0.078477f, -0.098888f, -0.068345f, -0.021725f, 0.101977f, -0.049722f, 0.026782f, -0.063484f, -0.031779f, -0.043975f, 0.030298f, -0.069081f, 0.060119f, -0.054845f, 0.033649f, -0.009510f, -0.011190f, -0.085487f, -0.069317f, -0.003609f, 0.040696f, -0.073660f, -0.075345f, -0.104654f, -0.056127f, -0.069218f, 0.022446f, -0.074357f, 0.020839f, -0.006298f, -0.062570f, 0.108907f, 0.007394f, -0.022990f, -0.075935f, -0.053154f, 0.006122f, -0.036795f, 0.000096f, -0.030546f, -0.101207f, -0.025497f, -0.018922f, -0.031485f, 0.015481f, -0.005479f, 0.105673f, 0.008251f, -0.028150f, -0.041668f, 0.015025f, 0.089069f, 0.012063f, 0.048793f, 0.036413f, 0.088733f, -0.021541f, 0.063202f, 0.018953f, -0.090134f, -0.079092f, 0.000950f, 0.023818f, 0.066993f, -0.087123f, 0.094875f, 0.068072f, 0.060797f, 0.023163f, -0.012459f, 0.048442f, -0.067064f, -0.053937f, -0.051650f, 0.108882f, -0.077160f, 0.056361f, -0.020511f, -0.100729f, -0.084660f, 0.080144f, 0.061001f, 0.012311f, -0.062292f, -0.113749f, 0.066850f, -0.032670f, -0.065696f, -0.064771f, 0.075216f, 0.037679f, 0.015689f, 0.098109f, 0.090455f, 0.024439f, 0.076806f, -0.048705f, -0.112509f, 0.092681f, -0.026324f, 0.084699f, -0.061854f, -0.030530f, 0.065971f, 0.050035f, -0.072895f, 0.017853f, -0.082057f, -0.068845f, 0.005956f, -0.096571f, 0.005499f, 0.022701f, 0.096752f, 0.084911f, 0.018850f, 0.013162f, 0.042022f, 0.087191f, 0.079778f, -0.087814f, 0.076862f, 0.045358f, -0.097044f, 0.046852f, 0.016731f, 0.086019f, -0.016405f, -0.004851f, 0.075576f, -0.019658f, 0.014224f, -0.033674f, -0.024521f, -0.046133f, -0.089489f, 0.030274f, 0.051868f, 0.037050f, -0.033791f, 0.002705f, 0.013130f, 0.045594f, -0.018327f, -0.085825f, 0.061934f, 0.038941f, -0.074943f, -0.051272f, -0.031165f, -0.000247f, -0.023703f, 0.008344f, 0.063482f, 0.035369f, -0.015717f, 0.066082f, 0.025923f, 0.029349f, 0.016616f, -0.069230f, 0.030328f, -0.034449f, 0.007290f, -0.086033f, 0.067742f, -0.014152f, 0.047360f, -0.068933f, 0.073631f, 0.012093f, -0.080665f, -0.044198f, 0.111950f, 0.040423f, -0.023262f, 0.081207f, -0.030573f, 0.037031f, -0.050787f, 0.026030f, -0.012120f, -0.001887f, -0.040541f, 0.081631f, -0.075353f, -0.069747f, -0.025084f, -0.083675f, 0.073629f, 0.073665f, -0.027900f, -0.014627f, -0.099823f, 0.058554f, 0.068365f, -0.005796f, -0.001790f, 0.045142f, 0.004149f, -0.031319f, -0.040276f, -0.006939f, 0.103736f, 0.007781f, -0.103291f, 0.072498f, -0.021250f, -0.086373f, -0.095930f, -0.056856f, 0.014325f, -0.011608f, 0.083989f, 0.051312f, -0.047864f, 0.104588f, 0.017369f, -0.108799f, 0.003270f, 0.064286f, -0.026598f, 0.089717f, 0.037411f, 0.022116f, -0.009012f, 0.100896f, -0.030429f, 0.010561f, 0.039527f, 0.014546f, -0.025051f, 0.058623f, 0.009794f, -0.012438f, -0.016703f, -0.065077f, 0.037503f, 0.073138f, -0.030581f, 0.080440f, -0.058873f, -0.019288f, 0.034213f, 0.000918f, 0.060302f, 0.035900f, 0.064895f, 0.027882f, -0.020879f, -0.027136f, -0.032632f, -0.002028f, 0.079256f, 0.035567f, 0.059195f, 0.087108f, 0.071258f, 0.081681f, 0.075627f, -0.039368f, -0.026882f, 0.003556f, 0.024802f, -0.020290f, 0.067923f, 0.037328f, 0.001378f, -0.051930f, -0.077366f, -0.049198f, 0.088345f, -0.085696f, 0.103064f, -0.000376f, -0.018487f, 0.049769f, 0.078454f, -0.067504f, 0.050618f, 0.001025f, -0.019429f, -0.061980f, 0.006259f, 0.069861f, 0.089221f, 0.082081f, -0.086481f, -0.015148f, -0.106800f, 0.036256f, 0.095118f, 0.028589f, -0.029751f, 0.063282f, 0.082871f, -0.108140f, 0.069392f, -0.031165f, 0.032893f, -0.037111f, -0.074000f, 0.046063f, 0.063327f, 0.061033f, 0.061323f, -0.075942f, 0.073148f, -0.011277f, -0.041931f, 0.017401f, -0.046258f, 0.044146f, 0.023375f, 0.054299f, 0.082180f, 0.046445f, -0.084837f, 0.058411f, 0.005252f, 0.006967f, -0.022264f, -0.082350f, -0.054426f, -0.070095f, 0.067924f, 0.043049f, 0.068917f, 0.053866f, -0.079592f, 0.030441f, 0.026876f, -0.090499f, 0.093780f, 0.062484f, 0.034989f, -0.011158f, -0.064582f, -0.072987f, 0.047363f, 0.098399f, -0.106178f, 0.000029f, -0.067375f, -0.010208f, 0.002514f, -0.004257f, -0.084344f, 0.086527f, 0.070921f, 0.064102f, -0.005847f, 0.048001f, 0.053637f, -0.045454f, -0.093969f, 0.010880f, 0.099344f, 0.032186f, -0.070257f, -0.000935f, -0.033024f, 0.006872f, 0.046223f, -0.010285f, 0.098245f, 0.055771f, -0.037704f, 0.022060f, -0.011535f, 0.045446f, -0.077851f, 0.004235f, -0.103633f, 0.106021f, 0.013346f, -0.056635f, -0.080102f, -0.042889f, 0.024704f, 0.080298f, -0.091005f, -0.062314f, -0.059522f, 0.040643f, -0.096378f, 0.068982f, -0.041060f, 0.057439f, 0.053011f, 0.090650f, -0.046295f, 0.056351f, -0.029779f, -0.032088f, 0.009304f, -0.062780f, -0.044472f, 0.071915f, -0.045722f, -0.032407f, 0.047300f, -0.041563f, -0.077174f, -0.046130f, 0.094740f, -0.023771f, -0.032543f, 0.060114f, -0.100194f, -0.079152f, 0.053342f, -0.050762f, 0.054819f, -0.086871f, 0.032540f, 0.014081f, -0.052051f, -0.061579f, 0.066586f, -0.014521f, -0.074814f, -0.081888f, 0.046383f, -0.017027f, 0.010689f, 0.001403f, 0.100650f, 0.073509f, 0.109578f, 0.103750f, 0.029019f, -0.087807f, 0.111495f, -0.021854f, -0.079550f, 0.083186f, -0.002022f, -0.008437f, -0.091891f, -0.017937f, -0.053049f, 0.059838f, -0.100285f, 0.022437f, -0.073300f, 0.038418f, 0.082994f, -0.084431f, -0.066287f, -0.006698f, 0.081921f, -0.020950f, 0.016686f, 0.039624f, 0.070538f, -0.076302f, 0.091730f, 0.035903f, 0.042118f, -0.022839f, -0.013449f, -0.071400f, 0.069006f, -0.060186f, 0.022824f, -0.010987f, -0.094253f, -0.035236f, 0.069437f, 0.009573f, -0.048380f, -0.011791f, 0.068505f, 0.047159f, -0.087068f, 0.021320f, -0.044622f, 0.084236f, 0.033458f, -0.074203f, -0.067885f, -0.072495f, -0.005760f, 0.052539f, -0.092486f, -0.052609f, -0.059286f, 0.013230f, 0.097889f, 0.065522f, -0.073457f, 0.054739f, -0.004866f, -0.015703f, 0.090927f, 0.017528f, -0.059548f, -0.062510f, 0.081354f, -0.069272f, -0.057954f, 0.033988f, -0.070164f, 0.066862f, -0.030828f, -0.017540f, -0.086104f, -0.104130f, 0.035523f, -0.075579f, 0.019877f, 0.002073f, 0.012623f, -0.054994f, 0.059345f, -0.003267f, -0.059649f, -0.090668f, -0.030957f, 0.035129f, -0.069297f, 0.031746f, -0.060626f, -0.019826f, 0.021859f, 0.046823f, -0.064522f, -0.092563f, -0.006921f, -0.062992f, 0.002342f, -0.082299f, -0.013446f, -0.017491f, -0.057552f, -0.000265f, -0.017805f, -0.075210f, 0.044277f, 0.069348f, 0.010233f, 0.035751f, 0.062007f, 0.096050f, 0.107190f, -0.015329f, 0.080742f, -0.040557f, 0.056432f, 0.069342f, -0.111620f, 0.070133f, 0.063505f, -0.058670f, -0.014520f, -0.080964f, 0.066034f, 0.072391f, 0.064302f, -0.011280f, 0.023399f, 0.055176f, -0.061120f, -0.086693f, 0.050825f, 0.000695f, 0.071022f, -0.110883f, -0.081173f, -0.037738f, -0.021742f, 0.053196f, -0.010805f, 0.076098f, -0.030856f, -0.095614f, -0.022370f, -0.025720f, 0.023347f, 0.042157f, -0.084089f, 0.036905f, -0.061108f, -0.000480f, 0.074998f, -0.081719f, -0.048745f, -0.006696f, -0.102858f, -0.056362f, -0.067954f, -0.000519f, 0.001720f, 0.055669f, 0.070599f, 0.002041f, 0.023095f, -0.093535f, -0.016364f, 0.082284f, 0.003023f, -0.038957f, -0.069459f, -0.015758f, 0.097277f, -0.077205f, 0.020962f, -0.009301f, 0.067742f, -0.054669f, -0.080894f, 0.026699f, 0.048022f, -0.009967f, -0.083801f, 0.056753f, 0.086725f, 0.042341f, 0.101921f, 0.060071f, 0.051917f, -0.010719f, -0.097524f, -0.091785f, 0.004790f, -0.024213f, -0.016517f, -0.104132f, -0.074488f, -0.071773f, -0.092970f, 0.019082f, -0.070419f, -0.051412f, -0.083221f, 0.067670f, 0.090430f, -0.075447f, 0.016447f, 0.028143f, -0.030382f, 0.006650f, -0.025136f, -0.079555f, 0.083479f, 0.023162f, 0.075314f, -0.081310f, 0.068533f, -0.004537f, 0.066152f, 0.053217f, -0.082390f, -0.107039f, -0.071292f, 0.039203f, -0.081959f, 0.001555f, 0.003292f, 0.042593f, 0.003754f, -0.092176f, -0.065339f, -0.089343f, 0.108839f, 0.041378f, -0.107591f, -0.074721f, -0.039273f, 0.046076f, -0.032710f, 0.008736f, 0.053796f, 0.086426f, 0.005496f, 0.039873f, -0.059845f, -0.050725f, 0.078784f, 0.015950f, 0.035995f, 0.076581f, -0.107311f, -0.028198f, 0.026897f, -0.022637f, 0.097701f, -0.009342f, -0.061556f, 0.082007f, -0.096729f, 0.062944f, -0.083367f, -0.003145f, -0.073972f, 0.091396f, -0.034474f, -0.105718f, 0.040574f, -0.048189f, 0.012171f, -0.010906f, -0.019090f, -0.051203f, 0.064717f, -0.022644f, -0.080125f, 0.102733f, 0.007600f, -0.006502f, -0.029838f, 0.040389f, -0.033914f, 0.033256f, 0.089039f, -0.016486f, 0.044318f, -0.055312f, 0.034203f, 0.030989f, -0.011141f, -0.061638f, 0.032951f, -0.025049f, -0.033573f, 0.072090f, 0.044794f, -0.075063f, -0.000747f, -0.072128f, 0.038206f, -0.033370f, 0.049321f, 0.065483f, 0.111059f, -0.028075f, -0.049815f, -0.074591f, 0.011684f, -0.045533f, 0.091396f, -0.097480f, 0.034203f, -0.013842f, 0.015348f, 0.016669f, 0.009465f, 0.031340f, 0.026704f, 0.100654f, -0.000651f, 0.081872f, 0.058855f, 0.055574f, 0.095520f, -0.070470f, -0.042081f, 0.089012f, -0.056230f, -0.015185f, -0.085053f, -0.079811f, 0.014698f, -0.031873f, -0.028445f, -0.003312f, 0.015067f, -0.011387f, -0.044871f, -0.069118f, 0.006810f, -0.009366f, 0.063085f, -0.080507f, 0.024068f, 0.035874f, 0.093303f, 0.064644f, 0.011761f, -0.034272f, -0.112901f, -0.065824f, 0.082002f, 0.096541f, 0.026597f, 0.027397f, 0.008745f, 0.043388f, -0.099814f, -0.033956f, -0.044335f, 0.103461f, -0.112229f, 0.031698f, -0.007772f, -0.100136f, -0.011405f, -0.066866f, -0.075193f, 0.040736f, -0.075435f, -0.081397f, -0.031193f, -0.087315f, 0.002516f, -0.039535f, -0.064809f, 0.014596f, 0.021005f, 0.038055f, 0.088051f, -0.086864f, -0.075966f, 0.022874f, -0.022293f, 0.094963f, -0.013119f, -0.037585f, 0.070932f, 0.011530f, -0.099637f, -0.087604f, 0.008163f, -0.024468f, 0.052418f, 0.042007f, -0.102840f, -0.077938f, 0.082054f, -0.064131f, 0.006777f, 0.090770f, 0.104197f, 0.055945f, 0.063616f, 0.076476f, -0.088362f, 0.057717f, -0.029646f, -0.102350f, 0.017316f, -0.064201f, -0.099768f, 0.010237f, -0.049892f, 0.057373f, -0.032469f, 0.061174f, -0.083059f, 0.093893f, -0.094553f, -0.064546f, -0.078307f, 0.094144f, -0.098128f, -0.030555f, 0.047113f, -0.020320f, -0.105313f, -0.035387f, 0.056233f, -0.031321f, 0.049392f, 0.054220f, -0.002038f, -0.067945f, 0.113502f, -0.007139f, -0.054787f, 0.032437f, 0.026201f, -0.017349f, 0.032981f, -0.072739f, 0.057740f, 0.048555f, 0.037396f, -0.088739f, 0.015147f, 0.037746f, 0.015432f, -0.075682f, -0.085349f, 0.035126f, 0.070095f, 0.100651f, -0.003398f, -0.049252f, -0.032716f, -0.091149f, -0.029693f, 0.053597f, -0.036423f, -0.079710f, -0.071887f, 0.027932f, 0.045331f, -0.073900f, 0.070155f, -0.026716f, 0.018944f, -0.040908f, 0.038085f, -0.010194f, 0.036366f, -0.018490f, 0.043031f, 0.068424f, 0.001890f, -0.005306f, -0.051000f, 0.042337f, -0.069447f, 0.041197f, 0.072244f, 0.097329f, 0.046862f, 0.010981f, 0.075282f, -0.001736f, -0.037590f, 0.047126f, -0.047129f, -0.096739f, -0.037586f, -0.020257f, -0.060197f, 0.080146f, 0.046525f, -0.104957f, -0.003290f, -0.080902f, 0.014337f, 0.037576f, -0.034340f, 0.007021f, -0.002298f, 0.015417f, -0.000267f, -0.072015f, -0.032601f, 0.095106f, 0.035084f, 0.094162f, -0.086466f, -0.048250f, 0.107579f, -0.024349f, 0.008687f, 0.023827f, -0.057771f, 0.034257f, -0.095762f, -0.004673f, 0.006702f, -0.069189f, 0.034623f, 0.072790f, 0.077068f, -0.103425f, -0.050942f, 0.072403f, -0.073855f, -0.029525f, 0.007975f, 0.060692f, -0.042899f, -0.026135f, -0.061702f, -0.021710f, 0.009470f, 0.083104f, 0.035023f, 0.026133f, 0.028370f, -0.028667f, -0.096355f, -0.039640f, -0.071670f, -0.038886f, -0.056481f, -0.022779f, -0.033763f, -0.021223f, 0.059339f, -0.071903f, -0.054867f, -0.097672f, 0.098521f, -0.054013f, 0.029071f, -0.019654f, 0.027975f, 0.041611f, 0.049542f, -0.013863f, -0.020752f, -0.075579f, 0.033453f, -0.084403f, 0.061245f, -0.082047f, 0.081488f, -0.046302f, 0.013734f, 0.063389f, 0.039672f, -0.019773f, 0.014760f, -0.107314f, -0.025233f, -0.058861f, -0.037594f, -0.040683f, -0.063153f, 0.081623f, -0.008703f, 0.043870f, 0.077709f, 0.030478f, -0.056765f, 0.059852f, 0.046067f, -0.013695f, 0.021793f, -0.026169f, -0.066036f, 0.049228f, 0.041813f, 0.016469f, -0.021810f, -0.020035f, -0.028711f, -0.035766f, 0.050110f, 0.086232f, -0.108372f, 0.025210f, -0.027780f, 0.081076f, -0.036842f, -0.025300f, 0.039806f, -0.101399f, 0.054883f, 0.039211f, -0.049166f, 0.040483f, 0.093758f, 0.073553f, -0.003967f, -0.056511f, 0.091034f, -0.009084f, -0.030964f, 0.014751f, -0.074611f, -0.019820f, 0.065480f, 0.001006f, 0.043043f, 0.063533f, 0.035266f, -0.080414f, 0.034669f, 0.000757f, -0.100508f, 0.078503f, -0.070394f, -0.107960f, 0.039253f, -0.063756f, -0.074361f, 0.086708f, -0.067689f, 0.016424f, -0.013877f, -0.084971f, -0.052961f, -0.025616f, -0.015374f, 0.025632f, 0.084972f, -0.009257f, 0.071237f, 0.013013f, 0.011775f, -0.075456f, 0.021406f, -0.061160f, -0.034212f, 0.003007f, 0.037945f, 0.019873f, -0.036987f, -0.077824f, -0.064438f, -0.024365f, 0.095555f, 0.006799f, 0.087968f, 0.003433f, -0.001682f, -0.028767f, 0.078159f, -0.000499f, -0.036988f, 0.091790f, 0.048691f, 0.020450f, 0.022514f, 0.006169f, -0.092343f, 0.043554f, -0.014294f, -0.108440f, 0.032757f, -0.061524f, 0.071853f, -0.035808f, 0.032775f, 0.001915f, -0.075641f, -0.025409f, 0.074364f, 0.076893f, -0.111179f, -0.080744f, 0.011623f, -0.095977f, 0.054651f, 0.009251f, 0.051387f, 0.042521f, 0.007489f, -0.077435f, -0.050014f, -0.019858f, -0.014220f, 0.042604f, 0.022302f, -0.027480f, 0.100278f, 0.017830f, 0.056736f, 0.066833f, -0.063382f, -0.030391f, -0.099986f, -0.072631f, 0.000751f, -0.007886f, -0.025904f, 0.030937f, -0.031873f, -0.001743f, 0.086856f, 0.026874f, 0.045138f, 0.060611f, -0.012944f, -0.024265f, 0.003072f, 0.074061f, -0.044621f, 0.058859f, -0.075302f, -0.043046f, 0.064877f, 0.091953f, -0.069447f, -0.041016f, 0.045985f, -0.036763f, -0.067200f, -0.042350f, -0.053132f, 0.051513f, 0.002020f, -0.087336f, -0.009376f, -0.028946f, -0.067584f, 0.068130f, 0.062289f, 0.001266f, 0.022566f, -0.046718f, 0.095450f, -0.013281f, -0.063232f, -0.017615f, -0.035286f, -0.080782f, -0.016241f, 0.099770f, -0.030691f, 0.062187f, -0.083114f, -0.065044f, -0.024567f, -0.109956f, 0.001243f, 0.079188f, -0.058802f, 0.030621f, 0.072968f, 0.081096f, -0.089240f, 0.084281f, -0.087022f, -0.019822f, 0.063260f, -0.019853f, -0.094676f, 0.052286f, 0.025839f, -0.018807f, -0.029313f, 0.023295f, 0.075508f, -0.027943f, -0.033001f, -0.040161f, -0.048346f, 0.073971f, -0.070525f, 0.026264f, 0.040817f, -0.110362f, 0.008279f, -0.018412f, -0.069850f, 0.069311f, -0.028027f, -0.043163f, 0.048077f, -0.005175f, -0.036080f, 0.011441f, -0.011733f, 0.063665f, 0.045767f, 0.064739f, 0.071304f, 0.001754f, 0.049387f, -0.040164f, 0.061963f, -0.005789f, 0.025490f, -0.076482f, -0.098720f, -0.067111f, -0.111216f, 0.041597f, 0.056069f, -0.010179f, 0.005961f, -0.055055f, 0.051384f, 0.011120f, -0.017645f, 0.069483f, 0.052077f, -0.014125f, -0.025208f, -0.045618f, -0.051723f, -0.005840f, -0.042160f, -0.081912f, -0.050954f, -0.086175f, 0.046933f, -0.017281f, -0.076607f, -0.058321f, 0.055841f, 0.005953f, 0.007653f, -0.023916f, 0.057572f, 0.025531f, -0.066296f, -0.086419f, -0.044190f, 0.106214f, -0.095999f, -0.007674f, 0.097830f, -0.097270f, -0.046049f, 0.008946f, -0.085524f, 0.087654f, -0.089952f, -0.082368f, -0.068873f, 0.034794f, 0.073746f, -0.001142f, 0.016595f, -0.004234f, -0.006646f, -0.038621f, 0.048016f, 0.026278f, -0.007055f, 0.080685f, 0.045162f, 0.009756f, 0.082744f, 0.005986f, -0.096773f, 0.045365f, 0.079581f, -0.102971f, 0.035787f, 0.081789f, 0.045471f, -0.018323f, 0.047128f, -0.047238f, 0.048377f, 0.021729f, 0.019457f, -0.016774f, -0.064695f, -0.028503f, 0.013628f, 0.022092f, -0.054019f, 0.036934f, -0.039364f, 0.041775f, 0.031780f, -0.086481f, 0.012870f, -0.090171f, 0.076844f, -0.035000f, -0.109774f, -0.010588f, -0.087286f, 0.017379f, 0.058760f, 0.084956f, 0.077177f, -0.023410f, -0.018315f, 0.105250f, -0.015739f, -0.029489f, 0.092023f, -0.059011f, -0.023345f, -0.019401f, 0.061458f, -0.007093f, 0.058232f, 0.041021f, 0.071206f, -0.032299f, 0.056975f, -0.084881f, 0.049775f, 0.079075f, -0.033239f, 0.028216f, 0.101623f, -0.075617f, 0.038608f, -0.082702f, -0.016408f, -0.064495f, 0.024375f, 0.033821f, 0.078694f, 0.075710f, 0.084447f, -0.000271f, 0.087646f, -0.041166f, -0.066194f, 0.015091f, 0.017636f, 0.084991f, -0.080140f, 0.087924f, 0.005372f, 0.085123f, 0.063075f, -0.041179f, 0.027895f, -0.037746f, 0.065999f, -0.096764f, 0.017170f, -0.003239f, -0.059375f, 0.003075f, -0.044902f, 0.049962f, 0.065326f, 0.060537f, -0.029681f, -0.055270f, -0.024866f, -0.005735f, 0.009821f, 0.056336f, 0.037196f, -0.076079f, 0.036441f, -0.088077f, 0.091378f, 0.045213f, -0.093557f, 0.080471f, 0.020582f, 0.023081f, 0.007440f, 0.022345f, -0.000614f, 0.020778f, 0.046667f, -0.076744f, 0.087263f, -0.031072f, -0.079976f, 0.025814f, 0.020118f, -0.026477f, 0.023837f, 0.056714f, -0.029467f, -0.081165f, -0.010953f, -0.038000f, -0.052816f, 0.013153f, 0.064665f, -0.105940f, -0.012419f, -0.060979f, 0.054571f, -0.058012f, -0.013145f, -0.080622f, -0.083603f, -0.083973f, -0.043010f, 0.048709f, 0.025667f, 0.066170f, -0.052245f, 0.035932f, 0.050085f, -0.017802f, -0.063936f, 0.050678f, -0.012700f, -0.002311f, 0.051888f, -0.016329f, -0.051336f, 0.035212f, -0.059920f, -0.035973f, -0.062757f, -0.082413f, 0.065238f, 0.026205f, -0.012723f, 0.059393f, 0.097664f, -0.008578f, -0.000929f, 0.019630f, -0.059873f, -0.064077f, 0.013612f, -0.014765f, -0.026856f, 0.001756f, 0.061794f, 0.041449f, -0.082198f, 0.030580f, -0.104952f, -0.006788f, -0.019899f, 0.060297f, 0.083871f, 0.049552f, 0.039859f, 0.089737f, 0.007057f, -0.057757f, -0.036249f, -0.003369f, -0.021962f, -0.027257f, 0.110244f, 0.086887f, 0.012602f, 0.046664f, 0.055375f, 0.020717f, -0.083081f, -0.082732f, 0.064072f, -0.092592f, 0.040002f, 0.052784f, 0.060060f, -0.050977f, 0.014939f, -0.073383f, -0.003701f, 0.016793f, -0.006969f, -0.009215f, 0.074923f, -0.028840f, -0.050691f, 0.069944f, -0.015199f, -0.012745f, 0.082649f, -0.054660f, 0.043054f, 0.008303f, 0.020737f, -0.017070f, -0.036087f, -0.081873f, 0.108750f, 0.059180f, -0.007336f, 0.012293f, -0.088294f, -0.078871f, 0.056851f, -0.099474f, 0.062338f, 0.041994f, 0.016500f, -0.008113f, -0.015512f, 0.097979f, 0.067499f, 0.003079f, -0.076296f, -0.037672f, -0.099023f, 0.061835f, -0.035166f, 0.008634f, -0.009962f, 